{"learner":{"attributes":{"scikit_learn":"{\"_estimator_type\": \"regressor\"}"},"feature_names":[],"feature_types":[],"gradient_booster":{"model":{"cats":{"enc":[],"feature_segments":[],"sorted_idx":[]},"gbtree_model_param":{"num_parallel_tree":"1","num_trees":"600"},"iteration_indptr":[0,1,2,3,4,5,6,7,8,9,10,11,12,13,14,15,16,17,18,19,20,21,22,23,24,25,26,27,28,29,30,31,32,33,34,35,36,37,38,39,40,41,42,43,44,45,46,47,48,49,50,51,52,53,54,55,56,57,58,59,60,61,62,63,64,65,66,67,68,69,70,71,72,73,74,75,76,77,78,79,80,81,82,83,84,85,86,87,88,89,90,91,92,93,94,95,96,97,98,99,100,101,102,103,104,105,106,107,108,109,110,111,112,113,114,115,116,117,118,119,120,121,122,123,124,125,126,127,128,129,130,131,132,133,134,135,136,137,138,139,140,141,142,143,144,145,146,147,148,149,150,151,152,153,154,155,156,157,158,159,160,161,162,163,164,165,166,167,168,169,170,171,172,173,174,175,176,177,178,179,180,181,182,183,184,185,186,187,188,189,190,191,192,193,194,195,196,197,198,199,200,201,202,203,204,205,206,207,208,209,210,211,212,213,214,215,216,217,218,219,220,221,222,223,224,225,226,227,228,229,230,231,232,233,234,235,236,237,238,239,240,241,242,243,244,245,246,247,248,249,250,251,252,253,254,255,256,257,258,259,260,261,262,263,264,265,266,267,268,269,270,271,272,273,274,275,276,277,278,279,280,281,282,283,284,285,286,287,288,289,290,291,292,293,294,295,296,297,298,299,300,301,302,303,304,305,306,307,308,309,310,311,312,313,314,315,316,317,318,319,320,321,322,323,324,325,326,327,328,329,330,331,332,333,334,335,336,337,338,339,340,341,342,343,344,345,346,347,348,349,350,351,352,353,354,355,356,357,358,359,360,361,362,363,364,365,366,367,368,369,370,371,372,373,374,375,376,377,378,379,380,381,382,383,384,385,386,387,388,389,390,391,392,393,394,395,396,397,398,399,400,401,402,403,404,405,406,407,408,409,410,411,412,413,414,415,416,417,418,419,420,421,422,423,424,425,426,427,428,429,430,431,432,433,434,435,436,437,438,439,440,441,442,443,444,445,446,447,448,449,450,451,452,453,454,455,456,457,458,459,460,461,462,463,464,465,466,467,468,469,470,471,472,473,474,475,476,477,478,479,480,481,482,483,484,485,486,487,488,489,490,491,492,493,494,495,496,497,498,499,500,501,502,503,504,505,506,507,508,509,510,511,512,513,514,515,516,517,518,519,520,521,522,523,524,525,526,527,528,529,530,531,532,533,534,535,536,537,538,539,540,541,542,543,544,545,546,547,548,549,550,551,552,553,554,555,556,557,558,559,560,561,562,563,564,565,566,567,568,569,570,571,572,573,574,575,576,577,578,579,580,581,582,583,584,585,586,587,588,589,590,591,592,593,594,595,596,597,598,599,600],"tree_info":[0,0,0,0,0,0,0,0,0,0,0,0,0,0,0,0,0,0,0,0,0,0,0,0,0,0,0,0,0,0,0,0,0,0,0,0,0,0,0,0,0,0,0,0,0,0,0,0,0,0,0,0,0,0,0,0,0,0,0,0,0,0,0,0,0,0,0,0,0,0,0,0,0,0,0,0,0,0,0,0,0,0,0,0,0,0,0,0,0,0,0,0,0,0,0,0,0,0,0,0,0,0,0,0,0,0,0,0,0,0,0,0,0,0,0,0,0,0,0,0,0,0,0,0,0,0,0,0,0,0,0,0,0,0,0,0,0,0,0,0,0,0,0,0,0,0,0,0,0,0,0,0,0,0,0,0,0,0,0,0,0,0,0,0,0,0,0,0,0,0,0,0,0,0,0,0,0,0,0,0,0,0,0,0,0,0,0,0,0,0,0,0,0,0,0,0,0,0,0,0,0,0,0,0,0,0,0,0,0,0,0,0,0,0,0,0,0,0,0,0,0,0,0,0,0,0,0,0,0,0,0,0,0,0,0,0,0,0,0,0,0,0,0,0,0,0,0,0,0,0,0,0,0,0,0,0,0,0,0,0,0,0,0,0,0,0,0,0,0,0,0,0,0,0,0,0,0,0,0,0,0,0,0,0,0,0,0,0,0,0,0,0,0,0,0,0,0,0,0,0,0,0,0,0,0,0,0,0,0,0,0,0,0,0,0,0,0,0,0,0,0,0,0,0,0,0,0,0,0,0,0,0,0,0,0,0,0,0,0,0,0,0,0,0,0,0,0,0,0,0,0,0,0,0,0,0,0,0,0,0,0,0,0,0,0,0,0,0,0,0,0,0,0,0,0,0,0,0,0,0,0,0,0,0,0,0,0,0,0,0,0,0,0,0,0,0,0,0,0,0,0,0,0,0,0,0,0,0,0,0,0,0,0,0,0,0,0,0,0,0,0,0,0,0,0,0,0,0,0,0,0,0,0,0,0,0,0,0,0,0,0,0,0,0,0,0,0,0,0,0,0,0,0,0,0,0,0,0,0,0,0,0,0,0,0,0,0,0,0,0,0,0,0,0,0,0,0,0,0,0,0,0,0,0,0,0,0,0,0,0,0,0,0,0,0,0,0,0,0,0,0,0,0,0,0,0,0,0,0,0,0,0,0,0,0,0,0,0,0,0,0,0,0,0,0,0,0,0,0,0,0,0,0,0,0,0,0,0,0,0,0,0,0,0,0,0,0,0,0,0,0,0,0,0,0,0,0,0,0,0,0,0,0,0,0,0,0,0,0,0,0,0,0,0,0,0,0,0,0,0,0,0,0,0,0,0,0,0,0,0,0,0,0,0,0,0,0,0,0,0],"trees":[{"base_weights":[-4.5470626E-4,-1.6913145E0,3.9860826E0,-2.994042E0,-4.1392958E-1,2.7992678E0,7.536357E0,-3.9314272E0,-2.4218562E0,-1.0301043E0,3.429146E-1,1.98393E0,3.9932141E0,6.585171E0,1.1082434E1,-4.6356573E0,-3.5944712E0,-2.782291E0,-2.0436268E0,-1.3482705E0,-6.8842375E-1,2.5416734E-2,7.7619064E-1,1.5672477E0,2.5217023E0,3.4828198E0,4.5700345E0,5.9702654E0,7.802503E0,1.0241113E1,4.0838543E-1,-5.0485783E0,-4.401005E0,-3.8360977E0,-3.3890862E0,-2.9586453E0,-2.5349765E0,-2.2662401E0,-1.7938527E0,-1.6037215E0,-1.1047858E0,-8.6717504E-1,-3.0016896E-1,-1.8481134E-1,4.2874876E-1,5.141804E-1,1.1433043E0,1.2693009E0,1.9227092E0,2.2006724E0,2.9038334E0,3.122301E0,3.8297548E0,4.1747932E0,4.908328E0,5.550296E0,6.39964E0,7.414142E0,8.372494E0,9.646003E0,1.140859E1,-1.5386021E-1,-1.4000471E-1,-1.355933E-1,-1.21655904E-1,-1.1843029E-1,-1.0301767E-1,-1.05972424E-1,-9.242904E-2,-9.395732E-2,-8.2083754E-2,-8.215581E-2,-7.0410326E-2,-7.330441E-2,-6.265804E-2,-5.8644515E-2,-4.7767468E-2,-5.7419386E-2,-4.533065E-2,-3.749442E-2,-2.5998875E-2,-3.45584E-2,-2.2474581E-2,-1.2766144E-2,-7.254596E-4,-1.5805585E-2,-2.017025E-3,6.9798175E-3,1.9441387E-2,4.545746E-3,1.8753452E-2,3.0166533E-2,4.371057E-2,3.1064747E-2,4.4154312E-2,5.0212894E-2,6.400864E-2,5.8391202E-2,7.280206E-2,8.2603894E-2,9.7917564E-2,8.552543E-2,1.0151109E-1,1.1065977E-1,1.2841722E-1,1.1724857E-1,1.3547356E-1,1.3736603E-1,1.5474127E-1,1.5328869E-1,1.7536588E-1,1.7728007E-1,2.0077461E-1,2.0939042E-1,2.336494E-1,2.3159216E-1,2.6050228E-1,2.785682E-1,3.0643883E-1,3.234551E-1,3.5195884E-1],"categories":[],"categories_nodes":[],"categories_segments":[],"categories_sizes":[],"default_left":[0,0,0,0,0,0,0,0,0,0,0,0,0,0,0,0,0,0,0,0,0,0,0,0,0,0,0,0,0,0,0,0,0,0,0,0,0,0,0,0,0,0,0,0,0,0,0,0,0,0,0,0,0,0,0,0,0,0,0,0,0,0,0,0,0,0,0,0,0,0,0,0,0,0,0,0,0,0,0,0,0,0,0,0,0,0,0,0,0,0,0,0,0,0,0,0,0,0,0,0,0,0,0,0,0,0,0,0,0,0,0,0,0,0,0,0,0,0,0,0,0],"id":0,"left_children":[1,3,5,7,9,11,13,15,17,19,21,23,25,27,29,31,33,35,37,39,41,43,45,47,49,51,53,55,57,59,-1,61,63,65,67,69,71,73,75,77,79,81,83,85,87,89,91,93,95,97,99,101,103,105,107,109,111,113,115,117,119,-1,-1,-1,-1,-1,-1,-1,-1,-1,-1,-1,-1,-1,-1,-1,-1,-1,-1,-1,-1,-1,-1,-1,-1,-1,-1,-1,-1,-1,-1,-1,-1,-1,-1,-1,-1,-1,-1,-1,-1,-1,-1,-1,-1,-1,-1,-1,-1,-1,-1,-1,-1,-1,-1,-1,-1,-1,-1,-1,-1],"loss_changes":[1.4508084E6,2.514925E5,2.7006656E5,4.0120562E4,3.558713E4,4.675872E4,5.4088375E4,6.7103125E3,6.3273125E3,4.571289E3,4.7107646E3,6.3923047E3,5.7208125E3,9.4295625E3,7.0810312E3,8.6384375E2,9.369531E2,1.0283906E3,1.2556172E3,1.3520977E3,1.4071904E3,1.6760607E3,1.3919033E3,1.7005664E3,1.5208672E3,1.2801328E3,1.1999375E3,1.4790625E3,8.7328125E2,1.6566875E3,0E0,7.4546875E1,2.1970312E2,3.794453E2,4.4553906E2,5.248203E2,3.7121484E2,3.7091016E2,3.4279297E2,3.016953E2,3.8356934E2,4.653672E2,2.2119275E2,5.223164E2,2.908352E2,3.397456E2,2.583833E2,4.1230762E2,3.8036523E2,3.835586E2,2.9707812E2,3.4894922E2,3.1691406E2,3.638672E2,3.7848438E2,5.2159375E2,5.533906E2,3.5332812E2,2.756953E2,2.4707812E2,4.025E1,0E0,0E0,0E0,0E0,0E0,0E0,0E0,0E0,0E0,0E0,0E0,0E0,0E0,0E0,0E0,0E0,0E0,0E0,0E0,0E0,0E0,0E0,0E0,0E0,0E0,0E0,0E0,0E0,0E0,0E0,0E0,0E0,0E0,0E0,0E0,0E0,0E0,0E0,0E0,0E0,0E0,0E0,0E0,0E0,0E0,0E0,0E0,0E0,0E0,0E0,0E0,0E0,0E0,0E0,0E0,0E0,0E0,0E0,0E0,0E0],"parents":[2147483647,0,0,1,1,2,2,3,3,4,4,5,5,6,6,7,7,8,8,9,9,10,10,11,11,12,12,13,13,14,14,15,15,16,16,17,17,18,18,19,19,20,20,21,21,22,22,23,23,24,24,25,25,26,26,27,27,28,28,29,29,31,31,32,32,33,33,34,34,35,35,36,36,37,37,38,38,39,39,40,40,41,41,42,42,43,43,44,44,45,45,46,46,47,47,48,48,49,49,50,50,51,51,52,52,53,53,54,54,55,55,56,56,57,57,58,58,59,59,60,60],"right_children":[2,4,6,8,10,12,14,16,18,20,22,24,26,28,30,32,34,36,38,40,42,44,46,48,50,52,54,56,58,60,-1,62,64,66,68,70,72,74,76,78,80,82,84,86,88,90,92,94,96,98,100,102,104,106,108,110,112,114,116,118,120,-1,-1,-1,-1,-1,-1,-1,-1,-1,-1,-1,-1,-1,-1,-1,-1,-1,-1,-1,-1,-1,-1,-1,-1,-1,-1,-1,-1,-1,-1,-1,-1,-1,-1,-1,-1,-1,-1,-1,-1,-1,-1,-1,-1,-1,-1,-1,-1,-1,-1,-1,-1,-1,-1,-1,-1,-1,-1,-1,-1],"split_conditions":[4.4489795E-1,-2.5442177E-1,1.4489796E0,-6.244898E-1,7.755102E-2,9.1020405E-1,2.3714285E0,-8.612245E-1,-4.312925E-1,-8.571429E-2,2.734694E-1,6.6938776E-1,1.155102E0,1.8816327E0,3.187755E0,-1.0217687E0,-7.306122E-1,7.7419356E-2,5.157165E-15,0E0,3.0107528E-1,2.9032257E-1,1.09851785E-1,5.157165E-15,4.3010753E-2,-6.451613E-2,-1.2903225E-1,1.6367347E0,2.1346939E0,2.812245E0,4.0838543E-1,2.6612905E-1,3.3870968E-1,4.1935483E-1,2.2580644E-1,-5.102041E-1,-5.265306E-1,-3.3877552E-1,-3.3333334E-1,-9.677419E-1,6.1290324E-1,-5.8064514E-1,1.2580645E0,-7.741935E-1,1.755102E-1,-9.677419E-1,1.2580645E0,5.4285717E-1,5.4285717E-1,7.7959186E-1,1.4193548E0,1.0244898E0,1.6451613E0,1.3061224E0,1.277551E0,-1.9354838E-1,-3.548387E-1,-1.2903225E-1,-5.322581E-1,2.6612905E-1,-4.516129E-1,-1.5386021E-1,-1.4000471E-1,-1.355933E-1,-1.21655904E-1,-1.1843029E-1,-1.0301767E-1,-1.05972424E-1,-9.242904E-2,-9.395732E-2,-8.2083754E-2,-8.215581E-2,-7.0410326E-2,-7.330441E-2,-6.265804E-2,-5.8644515E-2,-4.7767468E-2,-5.7419386E-2,-4.533065E-2,-3.749442E-2,-2.5998875E-2,-3.45584E-2,-2.2474581E-2,-1.2766144E-2,-7.254596E-4,-1.5805585E-2,-2.017025E-3,6.9798175E-3,1.9441387E-2,4.545746E-3,1.8753452E-2,3.0166533E-2,4.371057E-2,3.1064747E-2,4.4154312E-2,5.0212894E-2,6.400864E-2,5.8391202E-2,7.280206E-2,8.2603894E-2,9.7917564E-2,8.552543E-2,1.0151109E-1,1.1065977E-1,1.2841722E-1,1.1724857E-1,1.3547356E-1,1.3736603E-1,1.5474127E-1,1.5328869E-1,1.7536588E-1,1.7728007E-1,2.0077461E-1,2.0939042E-1,2.336494E-1,2.3159216E-1,2.6050228E-1,2.785682E-1,3.0643883E-1,3.234551E-1,3.5195884E-1],"split_indices":[0,0,0,0,0,0,0,0,0,0,0,0,0,0,0,0,0,1,1,1,1,1,1,1,1,1,1,0,0,0,0,1,1,1,1,0,0,0,0,1,1,1,1,1,0,1,1,0,0,0,1,0,1,0,0,1,1,1,1,1,1,0,0,0,0,0,0,0,0,0,0,0,0,0,0,0,0,0,0,0,0,0,0,0,0,0,0,0,0,0,0,0,0,0,0,0,0,0,0,0,0,0,0,0,0,0,0,0,0,0,0,0,0,0,0,0,0,0,0,0,0],"split_type":[0,0,0,0,0,0,0,0,0,0,0,0,0,0,0,0,0,0,0,0,0,0,0,0,0,0,0,0,0,0,0,0,0,0,0,0,0,0,0,0,0,0,0,0,0,0,0,0,0,0,0,0,0,0,0,0,0,0,0,0,0,0,0,0,0,0,0,0,0,0,0,0,0,0,0,0,0,0,0,0,0,0,0,0,0,0,0,0,0,0,0,0,0,0,0,0,0,0,0,0,0,0,0,0,0,0,0,0,0,0,0,0,0,0,0,0,0,0,0,0,0],"sum_hessian":[2.1523E5,1.5113E5,6.41E4,7.4822E4,7.6308E4,4.8042E4,1.6058E4,2.8358E4,4.6464E4,4.2063E4,3.4245E4,2.8549E4,1.9493E4,1.2664E4,3.394E3,9.173E3,1.9185E4,2.3788E4,2.2676E4,2.1779E4,2.0284E4,1.9764E4,1.4481E4,1.6088E4,1.2461E4,1.0346E4,9.147E3,8.418E3,4.246E3,2.551E3,8.43E2,3.316E3,5.857E3,8.806E3,1.0379E4,1.3879E4,9.909E3,1.1985E4,1.0691E4,1.0625E4,1.1154E4,1.3888E4,6.396E3,1.2992E4,6.772E3,8.452E3,6.029E3,8.755E3,7.333E3,6.776E3,5.685E3,5.079E3,5.267E3,4.225E3,4.922E3,4.263E3,4.155E3,2.534E3,1.712E3,1.696E3,8.55E2,2.73E3,5.86E2,4.35E3,1.507E3,6.886E3,1.92E3,7.076E3,3.303E3,7.795E3,6.084E3,4.75E3,5.159E3,5.992E3,5.993E3,5.939E3,4.752E3,2.439E3,8.186E3,6.929E3,4.225E3,4.066E3,9.822E3,4.397E3,1.999E3,3.322E3,9.67E3,3.577E3,3.195E3,1.981E3,6.471E3,4.193E3,1.836E3,4.067E3,4.688E3,3.368E3,3.965E3,3.194E3,3.582E3,4.017E3,1.668E3,2.498E3,2.581E3,4.019E3,1.248E3,2.379E3,1.846E3,2.131E3,2.791E3,1.718E3,2.545E3,1.562E3,2.593E3,1.182E3,1.352E3,5.61E2,1.151E3,1.049E3,6.47E2,3.03E2,5.52E2],"tree_param":{"num_deleted":"0","num_feature":"14","num_nodes":"121","size_leaf_vector":"1"}},{"base_weights":[-1.0653296E-3,-1.6062533E0,3.9468474E0,-2.8829246E0,-3.401625E-1,2.8194199E0,7.4233093E0,-3.8155568E0,-2.3285258E0,-9.242466E-1,4.4329906E-1,2.0415256E0,4.024498E0,6.4744005E0,1.0745993E1,-4.551466E0,-3.5097456E0,-2.6982E0,-1.9623098E0,-1.2579322E0,-5.8634526E-1,1.323411E-1,8.4690297E-1,1.6198182E0,2.5662162E0,3.596257E0,4.6448507E0,5.866161E0,7.570419E0,9.911811E0,3.96713E-1,-4.8978906E0,-4.315992E0,-3.76424E0,-3.3000526E0,-2.8380187E0,-2.4033232E0,-2.1185982E0,-1.6203091E0,-1.4256709E0,-9.11105E-1,-7.640571E-1,-2.075488E-1,-1.1583757E-1,4.6709886E-1,5.70345E-1,1.1818035E0,1.3300653E0,1.972548E0,2.1951423E0,2.8919818E0,3.2876337E0,3.9801238E0,4.259669E0,4.968758E0,5.52713E0,6.2894053E0,7.188368E0,8.131163E0,9.351073E0,1.1037829E1,-1.493991E-1,-1.3653128E-1,-1.3309959E-1,-1.1917472E-1,-1.1606696E-1,-1.01525664E-1,-1.0223768E-1,-8.739218E-2,-9.0199225E-2,-7.865846E-2,-7.808801E-2,-6.662267E-2,-6.913055E-2,-5.8463443E-2,-5.3861964E-2,-4.2932883E-2,-4.7161058E-2,-3.6785718E-2,-3.254103E-2,-2.2240557E-2,-3.4589306E-2,-2.0400966E-2,-1.2660265E-2,-1.6809675E-3,-1.2247282E-2,1.6930154E-4,1.0589347E-2,2.510806E-2,7.0701386E-3,2.0469747E-2,3.0519178E-2,4.2704552E-2,3.4259174E-2,4.750841E-2,5.502518E-2,7.095042E-2,5.9958335E-2,7.447195E-2,8.124933E-2,9.648978E-2,9.007756E-2,1.0568018E-1,1.1175902E-1,1.2781785E-1,1.1997729E-1,1.346433E-1,1.436541E-1,1.5924875E-1,1.5078165E-1,1.7343892E-1,1.7562675E-1,1.97947E-1,2.0148914E-1,2.254208E-1,2.2471882E-1,2.5284326E-1,2.6650757E-1,2.938313E-1,3.0991402E-1,3.3986968E-1],"categories":[],"categories_nodes":[],"categories_segments":[],"categories_sizes":[],"default_left":[0,0,0,0,0,0,0,0,0,0,0,0,0,0,0,0,0,0,0,0,0,0,0,0,0,0,0,0,0,0,0,0,0,0,0,0,0,0,0,0,0,0,0,0,0,0,0,0,0,0,0,0,0,0,0,0,0,0,0,0,0,0,0,0,0,0,0,0,0,0,0,0,0,0,0,0,0,0,0,0,0,0,0,0,0,0,0,0,0,0,0,0,0,0,0,0,0,0,0,0,0,0,0,0,0,0,0,0,0,0,0,0,0,0,0,0,0,0,0,0,0],"id":1,"left_children":[1,3,5,7,9,11,13,15,17,19,21,23,25,27,29,31,33,35,37,39,41,43,45,47,49,51,53,55,57,59,-1,61,63,65,67,69,71,73,75,77,79,81,83,85,87,89,91,93,95,97,99,101,103,105,107,109,111,113,115,117,119,-1,-1,-1,-1,-1,-1,-1,-1,-1,-1,-1,-1,-1,-1,-1,-1,-1,-1,-1,-1,-1,-1,-1,-1,-1,-1,-1,-1,-1,-1,-1,-1,-1,-1,-1,-1,-1,-1,-1,-1,-1,-1,-1,-1,-1,-1,-1,-1,-1,-1,-1,-1,-1,-1,-1,-1,-1,-1,-1,-1],"loss_changes":[1.3656598E6,2.4764062E5,2.44131E5,3.9432438E4,3.520155E4,4.4086344E4,4.8019938E4,6.3818125E3,6.470875E3,4.9677266E3,4.1230234E3,6.3203594E3,4.8828438E3,7.8632812E3,6.8625938E3,6.568281E2,1.0578438E3,9.731875E2,1.2804062E3,1.2878867E3,1.4737163E3,1.5420364E3,1.3229795E3,1.6166289E3,1.5318047E3,1.2785469E3,9.1578125E2,1.0575625E3,8.4359375E2,1.4931719E3,0E0,7.038281E1,1.8614062E2,3.4548438E2,4.4845312E2,5.78625E2,2.7210547E2,5.1458594E2,2.4642578E2,4.3349023E2,2.1173438E2,4.857461E2,2.2713019E2,3.787129E2,3.3285913E2,2.9311914E2,2.5484277E2,4.126172E2,3.8253906E2,3.3010938E2,3.9335938E2,3.9346875E2,3.2922656E2,1.8463281E2,2.2161719E2,5.0884375E2,4.1310938E2,3.3359375E2,2.5676562E2,2.5990625E2,4.9054688E1,0E0,0E0,0E0,0E0,0E0,0E0,0E0,0E0,0E0,0E0,0E0,0E0,0E0,0E0,0E0,0E0,0E0,0E0,0E0,0E0,0E0,0E0,0E0,0E0,0E0,0E0,0E0,0E0,0E0,0E0,0E0,0E0,0E0,0E0,0E0,0E0,0E0,0E0,0E0,0E0,0E0,0E0,0E0,0E0,0E0,0E0,0E0,0E0,0E0,0E0,0E0,0E0,0E0,0E0,0E0,0E0,0E0,0E0,0E0,0E0],"parents":[2147483647,0,0,1,1,2,2,3,3,4,4,5,5,6,6,7,7,8,8,9,9,10,10,11,11,12,12,13,13,14,14,15,15,16,16,17,17,18,18,19,19,20,20,21,21,22,22,23,23,24,24,25,25,26,26,27,27,28,28,29,29,31,31,32,32,33,33,34,34,35,35,36,36,37,37,38,38,39,39,40,40,41,41,42,42,43,43,44,44,45,45,46,46,47,47,48,48,49,49,50,50,51,51,52,52,53,53,54,54,55,55,56,56,57,57,58,58,59,59,60,60],"right_children":[2,4,6,8,10,12,14,16,18,20,22,24,26,28,30,32,34,36,38,40,42,44,46,48,50,52,54,56,58,60,-1,62,64,66,68,70,72,74,76,78,80,82,84,86,88,90,92,94,96,98,100,102,104,106,108,110,112,114,116,118,120,-1,-1,-1,-1,-1,-1,-1,-1,-1,-1,-1,-1,-1,-1,-1,-1,-1,-1,-1,-1,-1,-1,-1,-1,-1,-1,-1,-1,-1,-1,-1,-1,-1,-1,-1,-1,-1,-1,-1,-1,-1,-1,-1,-1,-1,-1,-1,-1,-1,-1,-1,-1,-1,-1,-1,-1,-1,-1,-1,-1],"split_conditions":[4.6938777E-1,-2.4081632E-1,1.4816327E0,-6.244898E-1,1.0612245E-1,9.4693875E-1,2.3714285E0,-8.77551E-1,-4.312925E-1,-7.482993E-2,2.952381E-1,6.979592E-1,1.2285714E0,1.8816327E0,3.187755E0,-1.0217687E0,-7.387755E-1,2.2580644E-1,3.0107528E-1,2.6612905E-1,3.0107528E-1,7.7419356E-2,5.157165E-15,2.4193548E-2,-1.2903225E-1,4.3010753E-2,-1.2903225E-1,1.677551E0,2.1346939E0,2.812245E0,3.96713E-1,2.4193548E-1,3.3870968E-1,4.516129E-1,4.1935483E-1,-5.102041E-1,-5.265306E-1,-3.3877552E-1,-3.3333334E-1,-1.4285715E-1,-1.5918367E-1,-9.677419E-1,-1.3605442E-3,-7.741935E-1,1.4193548E0,-9.677419E-1,8.548387E-1,5.9183675E-1,1.4193548E0,8.44898E-1,9.168081E-1,1.0653061E0,1.089796E0,1.3346939E0,1.032258E0,-3.9919356E-1,-2.2580644E-1,-2.580645E-1,-5.322581E-1,2.534694E0,-5.8064514E-1,-1.493991E-1,-1.3653128E-1,-1.3309959E-1,-1.1917472E-1,-1.1606696E-1,-1.01525664E-1,-1.0223768E-1,-8.739218E-2,-9.0199225E-2,-7.865846E-2,-7.808801E-2,-6.662267E-2,-6.913055E-2,-5.8463443E-2,-5.3861964E-2,-4.2932883E-2,-4.7161058E-2,-3.6785718E-2,-3.254103E-2,-2.2240557E-2,-3.4589306E-2,-2.0400966E-2,-1.2660265E-2,-1.6809675E-3,-1.2247282E-2,1.6930154E-4,1.0589347E-2,2.510806E-2,7.0701386E-3,2.0469747E-2,3.0519178E-2,4.2704552E-2,3.4259174E-2,4.750841E-2,5.502518E-2,7.095042E-2,5.9958335E-2,7.447195E-2,8.124933E-2,9.648978E-2,9.007756E-2,1.0568018E-1,1.1175902E-1,1.2781785E-1,1.1997729E-1,1.346433E-1,1.436541E-1,1.5924875E-1,1.5078165E-1,1.7343892E-1,1.7562675E-1,1.97947E-1,2.0148914E-1,2.254208E-1,2.2471882E-1,2.5284326E-1,2.6650757E-1,2.938313E-1,3.0991402E-1,3.3986968E-1],"split_indices":[0,0,0,0,0,0,0,0,0,0,0,0,0,0,0,0,0,1,1,1,1,1,1,1,1,1,1,0,0,0,0,1,1,1,1,0,0,0,0,0,0,1,0,1,1,1,1,0,1,0,1,0,0,0,1,1,1,1,1,0,1,0,0,0,0,0,0,0,0,0,0,0,0,0,0,0,0,0,0,0,0,0,0,0,0,0,0,0,0,0,0,0,0,0,0,0,0,0,0,0,0,0,0,0,0,0,0,0,0,0,0,0,0,0,0,0,0,0,0,0,0],"split_type":[0,0,0,0,0,0,0,0,0,0,0,0,0,0,0,0,0,0,0,0,0,0,0,0,0,0,0,0,0,0,0,0,0,0,0,0,0,0,0,0,0,0,0,0,0,0,0,0,0,0,0,0,0,0,0,0,0,0,0,0,0,0,0,0,0,0,0,0,0,0,0,0,0,0,0,0,0,0,0,0,0,0,0,0,0,0,0,0,0,0,0,0,0,0,0,0,0,0,0,0,0,0,0,0,0,0,0,0,0,0,0,0,0,0,0,0,0,0,0,0,0],"sum_hessian":[2.15499E5,1.53207E5,6.2292E4,7.6284E4,7.6923E4,4.7039E4,1.5253E4,2.8438E4,4.7846E4,4.4069E4,3.2854E4,2.8588E4,1.8451E4,1.1867E4,3.386E3,8.344E3,2.0094E4,2.3807E4,2.4039E4,2.2171E4,2.1898E4,1.8558E4,1.4296E4,1.5852E4,1.2736E4,1.092E4,7.531E3,7.636E3,4.231E3,2.537E3,8.49E2,3.368E3,4.976E3,9.069E3,1.1025E4,1.6143E4,7.664E3,1.6495E4,7.544E3,1.4941E4,7.23E3,1.4904E4,6.994E3,1.0657E4,7.901E3,7.832E3,6.464E3,8.706E3,7.146E3,5.958E3,6.778E3,6.059E3,4.861E3,3.447E3,4.084E3,4.248E3,3.388E3,2.525E3,1.706E3,1.7E3,8.37E2,2.712E3,6.56E2,3.673E3,1.303E3,7.103E3,1.966E3,8.615E3,2.41E3,9.059E3,7.084E3,3.654E3,4.01E3,7.871E3,8.624E3,3.913E3,3.631E3,8.613E3,6.328E3,3.571E3,3.659E3,2.645E3,1.2259E4,2.894E3,4.1E3,3.128E3,7.529E3,6.04E3,1.861E3,1.965E3,5.867E3,3.85E3,2.614E3,5.002E3,3.704E3,5.288E3,1.858E3,3.543E3,2.415E3,4.334E3,2.444E3,2.745E3,3.314E3,2.555E3,2.306E3,1.62E3,1.827E3,2.678E3,1.406E3,1.437E3,2.811E3,1.415E3,1.973E3,1.04E3,1.485E3,5.49E2,1.157E3,8.38E2,8.62E2,2.55E2,5.82E2],"tree_param":{"num_deleted":"0","num_feature":"14","num_nodes":"121","size_leaf_vector":"1"}},{"base_weights":[-1.5444584E-3,-1.5912917E0,3.7493734E0,-2.8170147E0,-3.8929036E-1,2.5938962E0,6.9726377E0,-3.724928E0,-2.28996E0,-9.715263E-1,3.2405508E-1,1.811112E0,3.6382518E0,5.969204E0,9.98644E0,-4.4139066E0,-3.4231143E0,-2.6787782E0,-1.9657594E0,-1.2931463E0,-6.7181087E-1,-2.3508715E-3,7.0155835E-1,1.4481466E0,2.2802973E0,3.1664498E0,4.19317E0,5.374994E0,6.8704076E0,8.769067E0,1.17790165E1,-4.752277E0,-4.184522E0,-3.6710446E0,-3.230897E0,-2.8004425E0,-2.3546395E0,-2.1192365E0,-1.6419E0,-1.5100864E0,-1.0308989E0,-8.9525306E-1,-3.9499617E-1,-1.906496E-1,3.9567703E-1,4.169395E-1,1.0017623E0,1.1731892E0,1.7828873E0,1.977079E0,2.6398616E0,2.8051898E0,3.4709241E0,3.772811E0,4.4700046E0,5.006981E0,5.723115E0,6.426891E0,7.3058567E0,8.390267E0,9.501349E0,1.0727906E1,1.2808673E1,-1.4754015E-1,-1.3744104E-1,-1.2926802E-1,-1.16457455E-1,-1.13886885E-1,-1.0103478E-1,-1.0195967E-1,-8.990906E-2,-8.866407E-2,-7.890088E-2,-7.6037265E-2,-6.593574E-2,-6.987466E-2,-5.871425E-2,-5.5158842E-2,-4.365891E-2,-5.3989753E-2,-4.2439517E-2,-3.4492448E-2,-2.3431761E-2,-3.839156E-2,-2.4638254E-2,-1.5394129E-2,-2.3746684E-3,-1.5773345E-2,-2.434164E-3,8.074935E-3,2.0569459E-2,1.8479999E-3,1.5456469E-2,2.5303619E-2,3.808842E-2,2.4982631E-2,3.8770445E-2,4.8835553E-2,6.244432E-2,5.2781057E-2,6.592925E-2,7.467967E-2,8.869437E-2,7.608928E-2,9.1047615E-2,9.88929E-2,1.1491274E-1,1.0560587E-1,1.2251109E-1,1.2646294E-1,1.429015E-1,1.3942395E-1,1.5866315E-1,1.6027582E-1,1.8043E-1,1.7908585E-1,2.0138153E-1,2.0349015E-1,2.2772357E-1,2.3608154E-1,2.6151592E-1,2.7364248E-1,3.0105078E-1,3.0157235E-1,3.302754E-1,3.5576347E-1,3.90328E-1],"categories":[],"categories_nodes":[],"categories_segments":[],"categories_sizes":[],"default_left":[0,0,0,0,0,0,0,0,0,0,0,0,0,0,0,0,0,0,0,0,0,0,0,0,0,0,0,0,0,0,0,0,0,0,0,0,0,0,0,0,0,0,0,0,0,0,0,0,0,0,0,0,0,0,0,0,0,0,0,0,0,0,0,0,0,0,0,0,0,0,0,0,0,0,0,0,0,0,0,0,0,0,0,0,0,0,0,0,0,0,0,0,0,0,0,0,0,0,0,0,0,0,0,0,0,0,0,0,0,0,0,0,0,0,0,0,0,0,0,0,0,0,0,0,0,0,0],"id":2,"left_children":[1,3,5,7,9,11,13,15,17,19,21,23,25,27,29,31,33,35,37,39,41,43,45,47,49,51,53,55,57,59,61,63,65,67,69,71,73,75,77,79,81,83,85,87,89,91,93,95,97,99,101,103,105,107,109,111,113,115,117,119,121,123,125,-1,-1,-1,-1,-1,-1,-1,-1,-1,-1,-1,-1,-1,-1,-1,-1,-1,-1,-1,-1,-1,-1,-1,-1,-1,-1,-1,-1,-1,-1,-1,-1,-1,-1,-1,-1,-1,-1,-1,-1,-1,-1,-1,-1,-1,-1,-1,-1,-1,-1,-1,-1,-1,-1,-1,-1,-1,-1,-1,-1,-1,-1,-1,-1],"loss_changes":[1.2854994E6,2.2307047E5,2.38978E5,3.5861438E4,3.1750818E4,3.8609875E4,5.1143562E4,5.707625E3,5.9725E3,4.0558828E3,4.2334116E3,4.5941406E3,5.2828125E3,6.7635E3,9.117031E3,6.2809375E2,8.987031E2,8.4225E2,1.2812578E3,1.1526953E3,1.3470166E3,1.3809335E3,1.3603599E3,1.3985977E3,1.277293E3,1.1919453E3,1.0624375E3,9.497344E2,9.2325E2,6.145E2,1.703E3,7.0328125E1,1.6923438E2,3.0221094E2,4.115703E2,4.046172E2,1.5922852E2,5.912656E2,3.01875E2,3.0346875E2,2.715537E2,3.4121484E2,3.6303235E2,4.588581E2,2.1659436E2,2.8545215E2,3.2700488E2,3.3758008E2,3.1329297E2,3.019297E2,2.476289E2,3.0009766E2,3.5741406E2,2.7376953E2,3.9539844E2,3.50625E2,4.0003125E2,2.8398438E2,3.2229688E2,2.1097656E2,7.546875E1,4.4695312E1,2.890625E0,0E0,0E0,0E0,0E0,0E0,0E0,0E0,0E0,0E0,0E0,0E0,0E0,0E0,0E0,0E0,0E0,0E0,0E0,0E0,0E0,0E0,0E0,0E0,0E0,0E0,0E0,0E0,0E0,0E0,0E0,0E0,0E0,0E0,0E0,0E0,0E0,0E0,0E0,0E0,0E0,0E0,0E0,0E0,0E0,0E0,0E0,0E0,0E0,0E0,0E0,0E0,0E0,0E0,0E0,0E0,0E0,0E0,0E0,0E0,0E0,0E0,0E0,0E0,0E0],"parents":[2147483647,0,0,1,1,2,2,3,3,4,4,5,5,6,6,7,7,8,8,9,9,10,10,11,11,12,12,13,13,14,14,15,15,16,16,17,17,18,18,19,19,20,20,21,21,22,22,23,23,24,24,25,25,26,26,27,27,28,28,29,29,30,30,31,31,32,32,33,33,34,34,35,35,36,36,37,37,38,38,39,39,40,40,41,41,42,42,43,43,44,44,45,45,46,46,47,47,48,48,49,49,50,50,51,51,52,52,53,53,54,54,55,55,56,56,57,57,58,58,59,59,60,60,61,61,62,62],"right_children":[2,4,6,8,10,12,14,16,18,20,22,24,26,28,30,32,34,36,38,40,42,44,46,48,50,52,54,56,58,60,62,64,66,68,70,72,74,76,78,80,82,84,86,88,90,92,94,96,98,100,102,104,106,108,110,112,114,116,118,120,122,124,126,-1,-1,-1,-1,-1,-1,-1,-1,-1,-1,-1,-1,-1,-1,-1,-1,-1,-1,-1,-1,-1,-1,-1,-1,-1,-1,-1,-1,-1,-1,-1,-1,-1,-1,-1,-1,-1,-1,-1,-1,-1,-1,-1,-1,-1,-1,-1,-1,-1,-1,-1,-1,-1,-1,-1,-1,-1,-1,-1,-1,-1,-1,-1,-1],"split_conditions":[4.4489795E-1,-2.5442177E-1,1.4163265E0,-6.3265306E-1,7.755102E-2,8.77551E-1,2.2489796E0,-8.77551E-1,-4.5306122E-1,-9.9319726E-2,2.5714287E-1,6.571429E-1,1.1306123E0,1.770068E0,2.812245E0,-1.0217687E0,-7.4693877E-1,3.3870968E-1,2.6612905E-1,4.3010753E-2,4.3010753E-2,3.3870968E-1,-5.157165E-15,2.4193548E-2,2.4193548E-2,-1.5483871E-1,-2.580645E-1,-4.8387095E-2,1.9551021E0,2.534694E0,3.187755E0,-1.0877551E0,2.6612905E-1,2.6612905E-1,7.7419356E-2,-5.4013604E-1,-5.4557824E-1,-3.632653E-1,-3.5510203E-1,-8.7096775E-1,8.3870965E-1,-1.2258065E0,1.032258E0,-7.741935E-1,1.4193548E0,-1.1612903E0,8.548387E-1,-9.677419E-1,1.032258E0,7.632653E-1,1.2580645E0,9.8367345E-1,1.032258E0,1.277551E0,1.277551E0,1.555102E0,1.555102E0,-3.2258064E-1,-3.9919356E-1,-3.2258064E-1,3.655914E-1,-5.8064514E-1,-1.0806452E0,-1.4754015E-1,-1.3744104E-1,-1.2926802E-1,-1.16457455E-1,-1.13886885E-1,-1.0103478E-1,-1.0195967E-1,-8.990906E-2,-8.866407E-2,-7.890088E-2,-7.6037265E-2,-6.593574E-2,-6.987466E-2,-5.871425E-2,-5.5158842E-2,-4.365891E-2,-5.3989753E-2,-4.2439517E-2,-3.4492448E-2,-2.3431761E-2,-3.839156E-2,-2.4638254E-2,-1.5394129E-2,-2.3746684E-3,-1.5773345E-2,-2.434164E-3,8.074935E-3,2.0569459E-2,1.8479999E-3,1.5456469E-2,2.5303619E-2,3.808842E-2,2.4982631E-2,3.8770445E-2,4.8835553E-2,6.244432E-2,5.2781057E-2,6.592925E-2,7.467967E-2,8.869437E-2,7.608928E-2,9.1047615E-2,9.88929E-2,1.1491274E-1,1.0560587E-1,1.2251109E-1,1.2646294E-1,1.429015E-1,1.3942395E-1,1.5866315E-1,1.6027582E-1,1.8043E-1,1.7908585E-1,2.0138153E-1,2.0349015E-1,2.2772357E-1,2.3608154E-1,2.6151592E-1,2.7364248E-1,3.0105078E-1,3.0157235E-1,3.302754E-1,3.5576347E-1,3.90328E-1],"split_indices":[0,0,0,0,0,0,0,0,0,0,0,0,0,0,0,0,0,2,2,2,2,2,2,2,2,2,2,2,0,0,0,0,2,2,2,0,0,0,0,2,2,2,2,2,2,2,2,2,2,0,2,0,2,0,0,0,0,2,2,2,2,2,2,0,0,0,0,0,0,0,0,0,0,0,0,0,0,0,0,0,0,0,0,0,0,0,0,0,0,0,0,0,0,0,0,0,0,0,0,0,0,0,0,0,0,0,0,0,0,0,0,0,0,0,0,0,0,0,0,0,0,0,0,0,0,0,0],"split_type":[0,0,0,0,0,0,0,0,0,0,0,0,0,0,0,0,0,0,0,0,0,0,0,0,0,0,0,0,0,0,0,0,0,0,0,0,0,0,0,0,0,0,0,0,0,0,0,0,0,0,0,0,0,0,0,0,0,0,0,0,0,0,0,0,0,0,0,0,0,0,0,0,0,0,0,0,0,0,0,0,0,0,0,0,0,0,0,0,0,0,0,0,0,0,0,0,0,0,0,0,0,0,0,0,0,0,0,0,0,0,0,0,0,0,0,0,0,0,0,0,0,0,0,0,0,0,0],"sum_hessian":[2.15577E5,1.51407E5,6.417E4,7.4963E4,7.6444E4,4.7238E4,1.6932E4,2.7531E4,4.7432E4,4.209E4,3.4354E4,2.7002E4,2.0236E4,1.2705E4,4.227E3,8.382E3,1.9149E4,2.1563E4,2.5869E4,2.0301E4,2.1789E4,1.8424E4,1.593E4,1.5227E4,1.1775E4,1.0941E4,9.295E3,7.661E3,5.044E3,2.521E3,1.706E3,3.378E3,5.004E3,8.354E3,1.0795E4,1.5672E4,5.891E3,1.7547E4,8.322E3,1.1107E4,9.194E3,1.2055E4,9.734E3,1.2508E4,5.916E3,8.179E3,7.751E3,8.363E3,6.864E3,6.392E3,5.383E3,5.009E3,5.932E3,3.697E3,5.598E3,3.732E3,3.929E3,2.507E3,2.537E3,1.67E3,8.51E2,8.5E2,8.56E2,1.7E3,1.678E3,3.536E3,1.468E3,5.904E3,2.45E3,6.278E3,4.517E3,8.197E3,7.475E3,2.735E3,3.156E3,7.639E3,9.908E3,4.046E3,4.276E3,2.748E3,8.359E3,6.227E3,2.967E3,1.942E3,1.0113E4,7.083E3,2.651E3,3.079E3,9.429E3,4.121E3,1.795E3,1.773E3,6.406E3,4.875E3,2.876E3,2.171E3,6.192E3,4.523E3,2.341E3,3.222E3,3.17E3,3.655E3,1.728E3,2.314E3,2.695E3,4.001E3,1.931E3,2.047E3,1.65E3,3.006E3,2.592E3,1.648E3,2.084E3,1.712E3,2.217E3,9.73E2,1.534E3,9.04E2,1.633E3,6.54E2,1.016E3,5.08E2,3.43E2,2.61E2,5.89E2,1.61E2,6.95E2],"tree_param":{"num_deleted":"0","num_feature":"14","num_nodes":"127","size_leaf_vector":"1"}},{"base_weights":[1.0136584E-3,-1.497499E0,3.743682E0,-2.7121983E0,-3.0672058E-1,2.675124E0,6.9848304E0,-3.5733466E0,-2.1787376E0,-8.55987E-1,4.4912884E-1,1.9426115E0,3.7813845E0,6.090974E0,1.0119103E1,-4.1902328E0,-3.2438133E0,-2.524262E0,-1.8464175E0,-1.1629713E0,-5.139305E-1,1.5428407E-1,8.3017963E-1,1.5887011E0,2.4830282E0,3.3810465E0,4.3677363E0,5.5175467E0,7.1195827E0,9.344057E0,1.2416484E1,-4.5459743E0,-3.9431632E0,-3.4312663E0,-3.0302951E0,-2.6881158E0,-2.2957652E0,-2.0525336E0,-1.6137277E0,-1.3273697E0,-8.4780383E-1,-7.7093536E-1,-2.7267537E-1,-3.720728E-2,5.31146E-1,5.4758537E-1,1.123741E0,1.3705574E0,2.0305371E0,2.2143352E0,2.8759432E0,3.0882103E0,3.7444339E0,4.065068E0,4.7414756E0,5.2004967E0,5.917195E0,6.7537584E0,7.650223E0,8.802129E0,1.0396985E1,3.446714E-1,3.7882972E-1,-1.4287014E-1,-1.3178928E-1,-1.2160439E-1,-1.0878897E-1,-1.0593796E-1,-9.220305E-2,-9.413683E-2,-7.962486E-2,-8.4994435E-2,-7.440151E-2,-7.366267E-2,-6.320746E-2,-6.690118E-2,-5.6824878E-2,-5.3384032E-2,-4.289524E-2,-4.468003E-2,-3.4151167E-2,-3.0520963E-2,-2.0240027E-2,-3.4694087E-2,-2.0797871E-2,-1.1950343E-2,6.094766E-4,-1.0601096E-2,2.131475E-3,1.2442035E-2,2.4964074E-2,4.6032323E-3,1.8978735E-2,3.0346816E-2,4.359432E-2,3.5274114E-2,4.87014E-2,5.420584E-2,6.883861E-2,5.694848E-2,7.095559E-2,8.1781305E-2,9.561378E-2,8.348284E-2,9.857744E-2,1.035023E-1,1.1925609E-1,1.1428966E-1,1.2840153E-1,1.3583745E-1,1.4992817E-1,1.4161614E-1,1.6329867E-1,1.6532405E-1,1.860817E-1,1.8892987E-1,2.120876E-1,2.1498588E-1,2.3999584E-1,2.5339708E-1,2.8017575E-1,2.940566E-1,3.2125878E-1],"categories":[],"categories_nodes":[],"categories_segments":[],"categories_sizes":[],"default_left":[0,0,0,0,0,0,0,0,0,0,0,0,0,0,0,0,0,0,0,0,0,0,0,0,0,0,0,0,0,0,0,0,0,0,0,0,0,0,0,0,0,0,0,0,0,0,0,0,0,0,0,0,0,0,0,0,0,0,0,0,0,0,0,0,0,0,0,0,0,0,0,0,0,0,0,0,0,0,0,0,0,0,0,0,0,0,0,0,0,0,0,0,0,0,0,0,0,0,0,0,0,0,0,0,0,0,0,0,0,0,0,0,0,0,0,0,0,0,0,0,0,0,0],"id":3,"left_children":[1,3,5,7,9,11,13,15,17,19,21,23,25,27,29,31,33,35,37,39,41,43,45,47,49,51,53,55,57,59,61,63,65,67,69,71,73,75,77,79,81,83,85,87,89,91,93,95,97,99,101,103,105,107,109,111,113,115,117,119,121,-1,-1,-1,-1,-1,-1,-1,-1,-1,-1,-1,-1,-1,-1,-1,-1,-1,-1,-1,-1,-1,-1,-1,-1,-1,-1,-1,-1,-1,-1,-1,-1,-1,-1,-1,-1,-1,-1,-1,-1,-1,-1,-1,-1,-1,-1,-1,-1,-1,-1,-1,-1,-1,-1,-1,-1,-1,-1,-1,-1,-1,-1],"loss_changes":[1.2064031E6,2.221769E5,2.1297819E5,3.4921438E4,3.2203436E4,3.7472844E4,4.2652188E4,5.8965E3,5.3856094E3,4.716082E3,3.6672705E3,5.317578E3,4.308E3,6.9564688E3,5.899375E3,8.692656E2,7.466094E2,8.5409375E2,1.1437344E3,1.2248477E3,1.3170562E3,1.3284517E3,1.1802148E3,1.6173711E3,1.1545781E3,1.1520312E3,8.232969E2,9.319219E2,7.6784375E2,1.3480938E3,1.415625E1,1.134375E2,1.9210156E2,3.4817188E2,3.4908594E2,3.956797E2,2.8351172E2,3.5127344E2,3.3936133E2,4.7369922E2,2.3715723E2,3.0672363E2,4.037796E2,4.178459E2,2.165907E2,2.4293848E2,2.5583105E2,5.5186914E2,3.2286914E2,3.0622852E2,1.9795703E2,3.5571484E2,3.1575E2,2.08375E2,1.5704688E2,4.676797E2,3.527578E2,3.14625E2,2.2988281E2,2.3639062E2,4.7453125E1,0E0,0E0,0E0,0E0,0E0,0E0,0E0,0E0,0E0,0E0,0E0,0E0,0E0,0E0,0E0,0E0,0E0,0E0,0E0,0E0,0E0,0E0,0E0,0E0,0E0,0E0,0E0,0E0,0E0,0E0,0E0,0E0,0E0,0E0,0E0,0E0,0E0,0E0,0E0,0E0,0E0,0E0,0E0,0E0,0E0,0E0,0E0,0E0,0E0,0E0,0E0,0E0,0E0,0E0,0E0,0E0,0E0,0E0,0E0,0E0,0E0,0E0],"parents":[2147483647,0,0,1,1,2,2,3,3,4,4,5,5,6,6,7,7,8,8,9,9,10,10,11,11,12,12,13,13,14,14,15,15,16,16,17,17,18,18,19,19,20,20,21,21,22,22,23,23,24,24,25,25,26,26,27,27,28,28,29,29,30,30,31,31,32,32,33,33,34,34,35,35,36,36,37,37,38,38,39,39,40,40,41,41,42,42,43,43,44,44,45,45,46,46,47,47,48,48,49,49,50,50,51,51,52,52,53,53,54,54,55,55,56,56,57,57,58,58,59,59,60,60],"right_children":[2,4,6,8,10,12,14,16,18,20,22,24,26,28,30,32,34,36,38,40,42,44,46,48,50,52,54,56,58,60,62,64,66,68,70,72,74,76,78,80,82,84,86,88,90,92,94,96,98,100,102,104,106,108,110,112,114,116,118,120,122,-1,-1,-1,-1,-1,-1,-1,-1,-1,-1,-1,-1,-1,-1,-1,-1,-1,-1,-1,-1,-1,-1,-1,-1,-1,-1,-1,-1,-1,-1,-1,-1,-1,-1,-1,-1,-1,-1,-1,-1,-1,-1,-1,-1,-1,-1,-1,-1,-1,-1,-1,-1,-1,-1,-1,-1,-1,-1,-1,-1,-1,-1],"split_conditions":[4.77551E-1,-2.4081632E-1,1.4816327E0,-6.163265E-1,1.1564626E-1,9.4693875E-1,2.3714285E0,-8.4761906E-1,-4.312925E-1,-6.122449E-2,3.0204082E-1,7.306122E-1,1.2285714E0,1.8816327E0,3.187755E0,-9.918367E-1,-7.0765305E-1,7.7419356E-2,5.157165E-15,2.4193548E-1,-3.2258064E-2,3.0107528E-1,-5.157165E-15,3.3870968E-1,1.3824885E-1,4.3010753E-2,2.4193548E-2,1.677551E0,2.1346939E0,2.812245E0,-1.0806452E0,-1.0877551E0,3.3870968E-1,4.1935483E-1,4.1935483E-1,-5.020408E-1,-5.102041E-1,-3.3877552E-1,-3.3333334E-1,-1.4285715E-1,-1.5102041E-1,-1.3548387E0,8.548387E-1,-7.741935E-1,1.548387E0,-1.3548387E0,1.3118279E0,6.0544217E-1,6.0544217E-1,-8.7096775E-1,1.4193548E0,1.0489796E0,1.0653061E0,1.3346939E0,1.3612245E0,-3.9919356E-1,-2.2580644E-1,-2.580645E-1,-2.4193548E-1,2.6612905E-1,-4.516129E-1,3.446714E-1,3.7882972E-1,-1.4287014E-1,-1.3178928E-1,-1.2160439E-1,-1.0878897E-1,-1.0593796E-1,-9.220305E-2,-9.413683E-2,-7.962486E-2,-8.4994435E-2,-7.440151E-2,-7.366267E-2,-6.320746E-2,-6.690118E-2,-5.6824878E-2,-5.3384032E-2,-4.289524E-2,-4.468003E-2,-3.4151167E-2,-3.0520963E-2,-2.0240027E-2,-3.4694087E-2,-2.0797871E-2,-1.1950343E-2,6.094766E-4,-1.0601096E-2,2.131475E-3,1.2442035E-2,2.4964074E-2,4.6032323E-3,1.8978735E-2,3.0346816E-2,4.359432E-2,3.5274114E-2,4.87014E-2,5.420584E-2,6.883861E-2,5.694848E-2,7.095559E-2,8.1781305E-2,9.561378E-2,8.348284E-2,9.857744E-2,1.035023E-1,1.1925609E-1,1.1428966E-1,1.2840153E-1,1.3583745E-1,1.4992817E-1,1.4161614E-1,1.6329867E-1,1.6532405E-1,1.860817E-1,1.8892987E-1,2.120876E-1,2.1498588E-1,2.3999584E-1,2.5339708E-1,2.8017575E-1,2.940566E-1,3.2125878E-1],"split_indices":[0,0,0,0,0,0,0,0,0,0,0,0,0,0,0,0,0,1,1,1,1,1,1,1,1,1,1,0,0,0,1,0,1,1,1,0,0,0,0,0,0,1,1,1,1,1,1,0,0,1,1,0,0,0,0,1,1,1,1,1,1,0,0,0,0,0,0,0,0,0,0,0,0,0,0,0,0,0,0,0,0,0,0,0,0,0,0,0,0,0,0,0,0,0,0,0,0,0,0,0,0,0,0,0,0,0,0,0,0,0,0,0,0,0,0,0,0,0,0,0,0,0,0],"split_type":[0,0,0,0,0,0,0,0,0,0,0,0,0,0,0,0,0,0,0,0,0,0,0,0,0,0,0,0,0,0,0,0,0,0,0,0,0,0,0,0,0,0,0,0,0,0,0,0,0,0,0,0,0,0,0,0,0,0,0,0,0,0,0,0,0,0,0,0,0,0,0,0,0,0,0,0,0,0,0,0,0,0,0,0,0,0,0,0,0,0,0,0,0,0,0,0,0,0,0,0,0,0,0,0,0,0,0,0,0,0,0,0,0,0,0,0,0,0,0,0,0,0,0],"sum_hessian":[2.15103E5,1.53603E5,6.15E4,7.6037E4,7.7566E4,4.6253E4,1.5247E4,2.9083E4,4.6954E4,4.4922E4,3.2644E4,2.7829E4,1.8424E4,1.1866E4,3.381E3,1.0122E4,1.8961E4,2.3016E4,2.3938E4,2.3673E4,2.1249E4,1.8405E4,1.4239E4,1.6819E4,1.101E4,1.0953E4,7.471E3,7.623E3,4.243E3,2.532E3,8.49E2,4.141E3,5.981E3,1.0088E4,8.873E3,1.3397E4,9.619E3,1.2689E4,1.1249E4,1.5555E4,8.118E3,1.0287E4,1.0962E4,1.2204E4,6.201E3,7.257E3,6.982E3,1.1263E4,5.556E3,6.543E3,4.467E3,6.071E3,4.882E3,4.135E3,3.336E3,4.259E3,3.364E3,2.52E3,1.723E3,1.678E3,8.54E2,1.68E2,6.81E2,1.702E3,2.439E3,4.427E3,1.554E3,7.877E3,2.211E3,6.893E3,1.98E3,7.886E3,5.511E3,5.205E3,4.414E3,5.976E3,6.713E3,5.911E3,5.338E3,8.372E3,7.183E3,4.098E3,4.02E3,1.722E3,8.565E3,7.672E3,3.29E3,3.113E3,9.091E3,4.474E3,1.727E3,1.289E3,5.968E3,5.212E3,1.77E3,6.366E3,4.897E3,3.013E3,2.543E3,2.119E3,4.424E3,3.022E3,1.445E3,2.392E3,3.679E3,2.153E3,2.729E3,1.899E3,2.236E3,1.83E3,1.506E3,1.438E3,2.821E3,1.397E3,1.967E3,1.04E3,1.48E3,7.32E2,9.91E2,1.02E3,6.58E2,3.05E2,5.49E2],"tree_param":{"num_deleted":"0","num_feature":"14","num_nodes":"123","size_leaf_vector":"1"}},{"base_weights":[8.265959E-4,-1.5074517E0,3.4969277E0,-2.677176E0,-4.022374E-1,2.3864543E0,6.46405E0,-3.503662E0,-2.1800275E0,-9.6242785E-1,2.566564E-1,1.6602731E0,3.3495908E0,5.5505176E0,9.392005E0,-4.150954E0,-3.2205226E0,-2.5212457E0,-1.8756135E0,-1.2609739E0,-6.849317E-1,-7.7784665E-2,5.9526604E-1,1.3049624E0,2.067246E0,2.9077184E0,3.8540893E0,5.005212E0,6.4623485E0,8.243635E0,1.1093196E1,-4.4697075E0,-3.938475E0,-3.4739144E0,-3.0527797E0,-2.6231325E0,-2.1784983E0,-1.99756E0,-1.5079112E0,-1.4674556E0,-1.0113219E0,-8.791954E-1,-4.1625035E-1,-3.4267896E-1,1.7487104E-1,3.2383826E-1,8.7117887E-1,1.0241953E0,1.5996331E0,1.8196247E0,2.4805512E0,2.518246E0,3.1581643E0,3.6438258E0,4.335096E0,4.6597147E0,5.340893E0,6.0394044E0,6.8686213E0,7.881369E0,8.947363E0,1.0094275E1,1.2079814E1,-1.3641012E-1,-1.2304907E-1,-1.21698126E-1,-1.09602295E-1,-1.0872005E-1,-9.6937925E-2,-9.537359E-2,-8.315555E-2,-8.440932E-2,-7.49427E-2,-7.052575E-2,-6.088984E-2,-6.512613E-2,-5.5329476E-2,-5.0600912E-2,-4.0306006E-2,-5.3609587E-2,-4.165075E-2,-3.3142105E-2,-2.1840716E-2,-3.7873108E-2,-2.43262E-2,-1.5881492E-2,-4.099212E-3,-1.9853726E-2,-7.526349E-3,4.9245957E-4,1.1711471E-2,5.002603E-3,1.601342E-2,2.18427E-2,3.374008E-2,2.1276612E-2,3.4319896E-2,4.3754973E-2,5.6829706E-2,4.876577E-2,6.1162833E-2,6.9648534E-2,8.2903534E-2,6.955206E-2,8.256058E-2,9.022379E-2,1.0608052E-1,1.03380665E-1,1.1933766E-1,1.2314759E-1,1.3829924E-1,1.3223355E-1,1.5263547E-1,1.493861E-1,1.7006838E-1,1.724888E-1,1.9294079E-1,1.9232954E-1,2.1567574E-1,2.1768E-1,2.4405895E-1,2.5769442E-1,2.8337342E-1,2.848951E-1,3.1189612E-1,3.451865E-1,3.7246823E-1],"categories":[],"categories_nodes":[],"categories_segments":[],"categories_sizes":[],"default_left":[0,0,0,0,0,0,0,0,0,0,0,0,0,0,0,0,0,0,0,0,0,0,0,0,0,0,0,0,0,0,0,0,0,0,0,0,0,0,0,0,0,0,0,0,0,0,0,0,0,0,0,0,0,0,0,0,0,0,0,0,0,0,0,0,0,0,0,0,0,0,0,0,0,0,0,0,0,0,0,0,0,0,0,0,0,0,0,0,0,0,0,0,0,0,0,0,0,0,0,0,0,0,0,0,0,0,0,0,0,0,0,0,0,0,0,0,0,0,0,0,0,0,0,0,0,0,0],"id":4,"left_children":[1,3,5,7,9,11,13,15,17,19,21,23,25,27,29,31,33,35,37,39,41,43,45,47,49,51,53,55,57,59,61,63,65,67,69,71,73,75,77,79,81,83,85,87,89,91,93,95,97,99,101,103,105,107,109,111,113,115,117,119,121,123,125,-1,-1,-1,-1,-1,-1,-1,-1,-1,-1,-1,-1,-1,-1,-1,-1,-1,-1,-1,-1,-1,-1,-1,-1,-1,-1,-1,-1,-1,-1,-1,-1,-1,-1,-1,-1,-1,-1,-1,-1,-1,-1,-1,-1,-1,-1,-1,-1,-1,-1,-1,-1,-1,-1,-1,-1,-1,-1,-1,-1,-1,-1,-1,-1],"loss_changes":[1.1353556E6,1.9445775E5,2.137985E5,3.0016625E4,2.8548227E4,3.302053E4,4.7212125E4,5.014375E3,4.7338125E3,3.4617383E3,4.0250408E3,3.8897031E3,4.5116875E3,6.662875E3,8.1098438E3,5.452656E2,7.991875E2,7.440781E2,1.0775234E3,1.0357559E3,1.130207E3,1.1968329E3,1.321999E3,1.1871211E3,1.2783984E3,1.0462344E3,9.4E2,9.503906E2,8.203125E2,5.648281E2,1.5369844E3,7.353125E1,1.5184375E2,2.6298438E2,3.975625E2,3.8627344E2,1.2053906E2,4.7577344E2,1.7350879E2,2.750371E2,2.3997363E2,3.2759082E2,2.8743042E2,2.5530286E2,3.124032E2,2.9337665E2,3.1625684E2,2.7658447E2,2.8790625E2,3.2952344E2,2.0329297E2,1.9027734E2,3.623203E2,4.2015625E2,1.6042188E2,4.2396094E2,4.748672E2,2.4070312E2,3.256875E2,2.0107812E2,6.421094E1,4.8164062E1,1.27265625E1,0E0,0E0,0E0,0E0,0E0,0E0,0E0,0E0,0E0,0E0,0E0,0E0,0E0,0E0,0E0,0E0,0E0,0E0,0E0,0E0,0E0,0E0,0E0,0E0,0E0,0E0,0E0,0E0,0E0,0E0,0E0,0E0,0E0,0E0,0E0,0E0,0E0,0E0,0E0,0E0,0E0,0E0,0E0,0E0,0E0,0E0,0E0,0E0,0E0,0E0,0E0,0E0,0E0,0E0,0E0,0E0,0E0,0E0,0E0,0E0,0E0,0E0,0E0,0E0],"parents":[2147483647,0,0,1,1,2,2,3,3,4,4,5,5,6,6,7,7,8,8,9,9,10,10,11,11,12,12,13,13,14,14,15,15,16,16,17,17,18,18,19,19,20,20,21,21,22,22,23,23,24,24,25,25,26,26,27,27,28,28,29,29,30,30,31,31,32,32,33,33,34,34,35,35,36,36,37,37,38,38,39,39,40,40,41,41,42,42,43,43,44,44,45,45,46,46,47,47,48,48,49,49,50,50,51,51,52,52,53,53,54,54,55,55,56,56,57,57,58,58,59,59,60,60,61,61,62,62],"right_children":[2,4,6,8,10,12,14,16,18,20,22,24,26,28,30,32,34,36,38,40,42,44,46,48,50,52,54,56,58,60,62,64,66,68,70,72,74,76,78,80,82,84,86,88,90,92,94,96,98,100,102,104,106,108,110,112,114,116,118,120,122,124,126,-1,-1,-1,-1,-1,-1,-1,-1,-1,-1,-1,-1,-1,-1,-1,-1,-1,-1,-1,-1,-1,-1,-1,-1,-1,-1,-1,-1,-1,-1,-1,-1,-1,-1,-1,-1,-1,-1,-1,-1,-1,-1,-1,-1,-1,-1,-1,-1,-1,-1,-1,-1,-1,-1,-1,-1,-1,-1,-1,-1,-1,-1,-1,-1],"split_conditions":[4.340136E-1,-2.6530612E-1,1.3918368E0,-6.3265306E-1,6.122449E-2,8.612245E-1,2.2489796E0,-8.77551E-1,-4.5306122E-1,-1.1020408E-1,2.2993197E-1,6.3265306E-1,1.1061225E0,1.770068E0,2.812245E0,-1.0217687E0,-7.5510204E-1,4.1935483E-1,4.1935483E-1,4.3010753E-2,7.7419356E-2,-5.157165E-15,-4.8387095E-2,-5.157165E-15,2.2580644E-1,-2.580645E-1,4.1935483E-1,1.555102E0,1.9551021E0,2.534694E0,3.187755E0,2.6612905E-1,2.6612905E-1,1.3824885E-1,2.2580644E-1,-5.5918366E-1,-5.4557824E-1,-3.632653E-1,-3.632653E-1,-1.032258E0,1.032258E0,-1.2258065E0,1.032258E0,-1.1612903E0,6.1290324E-1,3.414966E-1,8.548387E-1,-9.677419E-1,1.032258E0,7.4693877E-1,1.4193548E0,9.8367345E-1,1.032258E0,1.277551E0,1.2530612E0,2.6612905E-1,-4.8387095E-2,1.9354838E-1,-2.580645E-1,-6.236559E-1,3.655914E-1,-4.516129E-1,-3.548387E-1,-1.3641012E-1,-1.2304907E-1,-1.21698126E-1,-1.09602295E-1,-1.0872005E-1,-9.6937925E-2,-9.537359E-2,-8.315555E-2,-8.440932E-2,-7.49427E-2,-7.052575E-2,-6.088984E-2,-6.512613E-2,-5.5329476E-2,-5.0600912E-2,-4.0306006E-2,-5.3609587E-2,-4.165075E-2,-3.3142105E-2,-2.1840716E-2,-3.7873108E-2,-2.43262E-2,-1.5881492E-2,-4.099212E-3,-1.9853726E-2,-7.526349E-3,4.9245957E-4,1.1711471E-2,5.002603E-3,1.601342E-2,2.18427E-2,3.374008E-2,2.1276612E-2,3.4319896E-2,4.3754973E-2,5.6829706E-2,4.876577E-2,6.1162833E-2,6.9648534E-2,8.2903534E-2,6.955206E-2,8.256058E-2,9.022379E-2,1.0608052E-1,1.03380665E-1,1.1933766E-1,1.2314759E-1,1.3829924E-1,1.3223355E-1,1.5263547E-1,1.493861E-1,1.7006838E-1,1.724888E-1,1.9294079E-1,1.9232954E-1,2.1567574E-1,2.1768E-1,2.4405895E-1,2.5769442E-1,2.8337342E-1,2.848951E-1,3.1189612E-1,3.451865E-1,3.7246823E-1],"split_indices":[0,0,0,0,0,0,0,0,0,0,0,0,0,0,0,0,0,1,1,1,1,1,1,1,1,1,1,0,0,0,0,1,1,1,1,0,0,0,0,1,1,1,1,1,1,0,1,1,1,0,1,0,1,0,0,1,1,1,1,1,1,1,1,0,0,0,0,0,0,0,0,0,0,0,0,0,0,0,0,0,0,0,0,0,0,0,0,0,0,0,0,0,0,0,0,0,0,0,0,0,0,0,0,0,0,0,0,0,0,0,0,0,0,0,0,0,0,0,0,0,0,0,0,0,0,0,0],"split_type":[0,0,0,0,0,0,0,0,0,0,0,0,0,0,0,0,0,0,0,0,0,0,0,0,0,0,0,0,0,0,0,0,0,0,0,0,0,0,0,0,0,0,0,0,0,0,0,0,0,0,0,0,0,0,0,0,0,0,0,0,0,0,0,0,0,0,0,0,0,0,0,0,0,0,0,0,0,0,0,0,0,0,0,0,0,0,0,0,0,0,0,0,0,0,0,0,0,0,0,0,0,0,0,0,0,0,0,0,0,0,0,0,0,0,0,0,0,0,0,0,0,0,0,0,0,0,0],"sum_hessian":[2.15309E5,1.50417E5,6.4892E4,7.3075E4,7.7342E4,4.7221E4,1.7671E4,2.7444E4,4.5631E4,4.1802E4,3.554E4,2.6924E4,2.0297E4,1.3471E4,4.2E3,8.347E3,1.9097E4,2.1511E4,2.412E4,2.0135E4,2.1667E4,1.788E4,1.766E4,1.4377E4,1.2547E4,1.0824E4,9.473E3,8.434E3,5.037E3,2.511E3,1.689E3,3.33E3,5.017E3,7.598E3,1.1499E4,1.6576E4,4.935E3,1.8109E4,6.011E3,1.1017E4,9.118E3,1.2573E4,9.094E3,8.729E3,9.151E3,8.904E3,8.756E3,7.365E3,7.012E3,7.85E3,4.697E3,4.241E3,6.583E3,6.598E3,2.875E3,4.164E3,4.27E3,2.476E3,2.561E3,1.666E3,8.45E2,8.45E2,8.44E2,2.742E3,5.88E2,3.537E3,1.48E3,4.685E3,2.913E3,7.924E3,3.575E3,6.559E3,1.0017E4,2.279E3,2.656E3,8.491E3,9.618E3,2.874E3,3.137E3,2.181E3,8.836E3,6.854E3,2.264E3,1.899E3,1.0674E4,6.473E3,2.621E3,1.948E3,6.781E3,5.275E3,3.876E3,5.095E3,3.809E3,5.6E3,3.156E3,2.032E3,5.333E3,4.746E3,2.266E3,4.168E3,3.682E3,3.014E3,1.683E3,2.293E3,1.948E3,4.713E3,1.87E3,4.152E3,2.446E3,1.574E3,1.301E3,2.629E3,1.535E3,2.04E3,2.23E3,1.433E3,1.043E3,1.064E3,1.497E3,4.9E2,1.176E3,5.03E2,3.42E2,2.95E2,5.5E2,3.25E2,5.19E2],"tree_param":{"num_deleted":"0","num_feature":"14","num_nodes":"127","size_leaf_vector":"1"}},{"base_weights":[4.238525E-3,-1.408582E0,3.5295324E0,-2.5338914E0,-2.732548E-1,2.5184844E0,6.576452E0,-3.3191752E0,-2.0082033E0,-7.8060615E-1,4.35267E-1,1.7941201E0,3.515591E0,5.7329183E0,9.526432E0,-3.9067352E0,-2.9985952E0,-2.3046787E0,-1.6792413E0,-1.041861E0,-4.2546272E-1,1.465489E-1,7.640464E-1,1.4224408E0,2.210312E0,3.1062965E0,4.0634975E0,5.1945434E0,6.7002516E0,8.783972E0,3.510891E-1,-4.227068E0,-3.6378188E0,-3.1898618E0,-2.8060613E0,-2.5024748E0,-2.125181E0,-1.9172844E0,-1.4900194E0,-1.2653314E0,-8.278182E-1,-6.418818E-1,-1.6873765E-1,-7.282488E-2,4.4252175E-1,5.653823E-1,1.1364992E0,1.1438911E0,1.7162626E0,1.8392618E0,2.4587846E0,2.6616125E0,3.3256497E0,3.5913312E0,4.294906E0,4.8908577E0,5.575729E0,6.359482E0,7.2019763E0,8.284021E0,9.7749405E0,-1.3448025E-1,-1.2281646E-1,-1.1333853E-1,-1.0228189E-1,-1.00233525E-1,-8.9206815E-2,-8.7163575E-2,-7.383118E-2,-7.947188E-2,-6.947598E-2,-6.919634E-2,-5.8822416E-2,-6.7547895E-2,-5.515795E-2,-4.8115008E-2,-3.7611153E-2,-4.3240707E-2,-3.2901146E-2,-2.722821E-2,-1.3785315E-2,-3.084582E-2,-1.7219203E-2,-8.852696E-3,2.2796309E-3,-1.0093867E-2,1.0550587E-3,1.0239046E-2,2.3005964E-2,6.202166E-3,1.9835448E-2,3.0428145E-2,4.0729545E-2,2.5550723E-2,3.770522E-2,4.805448E-2,6.308791E-2,4.7768395E-2,6.0550433E-2,6.921704E-2,8.319862E-2,7.212893E-2,8.7027095E-2,9.300292E-2,1.0734468E-1,9.934436E-2,1.1380156E-1,1.2155022E-1,1.3572644E-1,1.3303114E-1,1.536509E-1,1.533352E-1,1.7438853E-1,1.7922993E-1,2.0117578E-1,1.942972E-1,2.2266024E-1,2.3886622E-1,2.645397E-1,2.7489692E-1,3.0104452E-1],"categories":[],"categories_nodes":[],"categories_segments":[],"categories_sizes":[],"default_left":[0,0,0,0,0,0,0,0,0,0,0,0,0,0,0,0,0,0,0,0,0,0,0,0,0,0,0,0,0,0,0,0,0,0,0,0,0,0,0,0,0,0,0,0,0,0,0,0,0,0,0,0,0,0,0,0,0,0,0,0,0,0,0,0,0,0,0,0,0,0,0,0,0,0,0,0,0,0,0,0,0,0,0,0,0,0,0,0,0,0,0,0,0,0,0,0,0,0,0,0,0,0,0,0,0,0,0,0,0,0,0,0,0,0,0,0,0,0,0,0,0],"id":5,"left_children":[1,3,5,7,9,11,13,15,17,19,21,23,25,27,29,31,33,35,37,39,41,43,45,47,49,51,53,55,57,59,-1,61,63,65,67,69,71,73,75,77,79,81,83,85,87,89,91,93,95,97,99,101,103,105,107,109,111,113,115,117,119,-1,-1,-1,-1,-1,-1,-1,-1,-1,-1,-1,-1,-1,-1,-1,-1,-1,-1,-1,-1,-1,-1,-1,-1,-1,-1,-1,-1,-1,-1,-1,-1,-1,-1,-1,-1,-1,-1,-1,-1,-1,-1,-1,-1,-1,-1,-1,-1,-1,-1,-1,-1,-1,-1,-1,-1,-1,-1,-1,-1],"loss_changes":[1.0729779E6,1.964861E5,1.8985544E5,3.1876719E4,2.7520709E4,3.3419406E4,3.815275E4,5.81975E3,4.5075312E3,4.1384414E3,3.0320747E3,4.1428516E3,4.3521562E3,6.1819688E3,5.4064688E3,9.2371875E2,7.272969E2,8.5721094E2,9.8422656E2,1.2277578E3,1.0503477E3,1.1046449E3,1.1040049E3,1.156498E3,1.16E3,1.0770469E3,8.916094E2,8.583906E2,6.7965625E2,1.1764688E3,0E0,1.4864062E2,1.7539062E2,3.1685156E2,3.340547E2,3.088672E2,3.7484766E2,2.5008984E2,3.2598633E2,3.7082617E2,3.8508008E2,2.6808838E2,2.6762177E2,2.782651E2,2.3716174E2,3.3435132E2,1.3831055E2,2.3840137E2,3.0046484E2,2.202207E2,3.528828E2,2.1857812E2,4.119453E2,1.4046875E2,2.903203E2,4.25625E2,3.413828E2,2.963203E2,2.2197656E2,2.1704688E2,3.725E1,0E0,0E0,0E0,0E0,0E0,0E0,0E0,0E0,0E0,0E0,0E0,0E0,0E0,0E0,0E0,0E0,0E0,0E0,0E0,0E0,0E0,0E0,0E0,0E0,0E0,0E0,0E0,0E0,0E0,0E0,0E0,0E0,0E0,0E0,0E0,0E0,0E0,0E0,0E0,0E0,0E0,0E0,0E0,0E0,0E0,0E0,0E0,0E0,0E0,0E0,0E0,0E0,0E0,0E0,0E0,0E0,0E0,0E0,0E0,0E0],"parents":[2147483647,0,0,1,1,2,2,3,3,4,4,5,5,6,6,7,7,8,8,9,9,10,10,11,11,12,12,13,13,14,14,15,15,16,16,17,17,18,18,19,19,20,20,21,21,22,22,23,23,24,24,25,25,26,26,27,27,28,28,29,29,31,31,32,32,33,33,34,34,35,35,36,36,37,37,38,38,39,39,40,40,41,41,42,42,43,43,44,44,45,45,46,46,47,47,48,48,49,49,50,50,51,51,52,52,53,53,54,54,55,55,56,56,57,57,58,58,59,59,60,60],"right_children":[2,4,6,8,10,12,14,16,18,20,22,24,26,28,30,32,34,36,38,40,42,44,46,48,50,52,54,56,58,60,-1,62,64,66,68,70,72,74,76,78,80,82,84,86,88,90,92,94,96,98,100,102,104,106,108,110,112,114,116,118,120,-1,-1,-1,-1,-1,-1,-1,-1,-1,-1,-1,-1,-1,-1,-1,-1,-1,-1,-1,-1,-1,-1,-1,-1,-1,-1,-1,-1,-1,-1,-1,-1,-1,-1,-1,-1,-1,-1,-1,-1,-1,-1,-1,-1,-1,-1,-1,-1,-1,-1,-1,-1,-1,-1,-1,-1,-1,-1,-1,-1],"split_conditions":[4.77551E-1,-2.3265307E-1,1.4816327E0,-6E-1,1.2108844E-1,9.265306E-1,2.3714285E0,-8.312925E-1,-4.0408164E-1,-3.6734693E-2,2.952381E-1,6.8163264E-1,1.2040817E0,1.8816327E0,3.187755E0,-9.6734697E-1,-6.979592E-1,0E0,-9.677419E-2,0E0,2.4193548E-2,7.7419356E-2,2.6612905E-1,-5.157165E-15,-2.580645E-1,-3.8709676E-1,-3.8709676E-1,1.677551E0,2.1346939E0,2.812245E0,3.510891E-1,-1.0877551E0,1.6129032E-1,7.7419356E-2,4.1935483E-1,-4.884354E-1,-5.020408E-1,-1.2258065E0,6.1290324E-1,-1.3741496E-1,1.2580645E0,-1.3548387E0,8.548387E-1,-7.741935E-1,1.4193548E0,-9.677419E-1,1.3118279E0,-9.677419E-1,1.483871E0,7.7959186E-1,9.168081E-1,1.0489796E0,1.0653061E0,1.3061224E0,1.3346939E0,-3.9919356E-1,-3.9919356E-1,-9.677419E-2,-8.2258064E-1,3.655914E-1,-5.8064514E-1,-1.3448025E-1,-1.2281646E-1,-1.1333853E-1,-1.0228189E-1,-1.00233525E-1,-8.9206815E-2,-8.7163575E-2,-7.383118E-2,-7.947188E-2,-6.947598E-2,-6.919634E-2,-5.8822416E-2,-6.7547895E-2,-5.515795E-2,-4.8115008E-2,-3.7611153E-2,-4.3240707E-2,-3.2901146E-2,-2.722821E-2,-1.3785315E-2,-3.084582E-2,-1.7219203E-2,-8.852696E-3,2.2796309E-3,-1.0093867E-2,1.0550587E-3,1.0239046E-2,2.3005964E-2,6.202166E-3,1.9835448E-2,3.0428145E-2,4.0729545E-2,2.5550723E-2,3.770522E-2,4.805448E-2,6.308791E-2,4.7768395E-2,6.0550433E-2,6.921704E-2,8.319862E-2,7.212893E-2,8.7027095E-2,9.300292E-2,1.0734468E-1,9.934436E-2,1.1380156E-1,1.2155022E-1,1.3572644E-1,1.3303114E-1,1.536509E-1,1.533352E-1,1.7438853E-1,1.7922993E-1,2.0117578E-1,1.942972E-1,2.2266024E-1,2.3886622E-1,2.645397E-1,2.7489692E-1,3.0104452E-1],"split_indices":[0,0,0,0,0,0,0,0,0,0,0,0,0,0,0,0,0,2,2,2,2,2,2,2,2,2,2,0,0,0,0,0,2,2,2,0,0,2,2,0,2,2,2,2,2,2,2,2,2,0,2,0,0,0,0,2,2,2,2,2,2,0,0,0,0,0,0,0,0,0,0,0,0,0,0,0,0,0,0,0,0,0,0,0,0,0,0,0,0,0,0,0,0,0,0,0,0,0,0,0,0,0,0,0,0,0,0,0,0,0,0,0,0,0,0,0,0,0,0,0,0],"split_type":[0,0,0,0,0,0,0,0,0,0,0,0,0,0,0,0,0,0,0,0,0,0,0,0,0,0,0,0,0,0,0,0,0,0,0,0,0,0,0,0,0,0,0,0,0,0,0,0,0,0,0,0,0,0,0,0,0,0,0,0,0,0,0,0,0,0,0,0,0,0,0,0,0,0,0,0,0,0,0,0,0,0,0,0,0,0,0,0,0,0,0,0,0,0,0,0,0,0,0,0,0,0,0,0,0,0,0,0,0,0,0,0,0,0,0,0,0,0,0,0,0],"sum_hessian":[2.15429E5,1.53794E5,6.1635E4,7.7237E4,7.6557E4,4.628E4,1.5355E4,3.0969E4,4.6268E4,4.4612E4,3.1945E4,2.6808E4,1.9472E4,1.1943E4,3.412E3,1.0928E4,2.0041E4,2.4332E4,2.1936E4,2.5702E4,1.891E4,1.701E4,1.4935E4,1.4164E4,1.2644E4,1.115E4,8.322E3,7.677E3,4.266E3,2.548E3,8.64E2,4.98E3,5.948E3,1.0045E4,9.996E3,1.1569E4,1.2763E4,9.71E3,1.2226E4,1.2571E4,1.3131E4,1.0259E4,8.651E3,9.769E3,7.241E3,9.742E3,5.193E3,7.274E3,6.89E3,5.075E3,7.569E3,3.688E3,7.462E3,2.743E3,5.579E3,4.281E3,3.396E3,2.549E3,1.717E3,1.7E3,8.48E2,1.694E3,3.286E3,3.676E3,2.272E3,5.902E3,4.143E3,7.754E3,2.242E3,6.471E3,5.098E3,6.062E3,6.701E3,1.844E3,7.866E3,8.247E3,3.979E3,6.146E3,6.425E3,1.0791E4,2.34E3,1.531E3,8.728E3,5.706E3,2.945E3,2.839E3,6.93E3,5.521E3,1.72E3,2.055E3,7.687E3,3.349E3,1.844E3,2.031E3,5.243E3,5.321E3,1.569E3,2.138E3,2.937E3,5.114E3,2.455E3,1.783E3,1.905E3,3.949E3,3.513E3,1.158E3,1.585E3,2.717E3,2.862E3,1.445E3,2.836E3,1.156E3,2.24E3,1.216E3,1.333E3,4.07E2,1.31E3,1.071E3,6.29E2,2.64E2,5.84E2],"tree_param":{"num_deleted":"0","num_feature":"14","num_nodes":"121","size_leaf_vector":"1"}},{"base_weights":[-5.2507495E-4,-1.4183825E0,3.2913892E0,-2.5314572E0,-3.9324412E-1,2.276015E0,6.1741147E0,-3.2970247E0,-2.062488E0,-9.341694E-1,2.2605057E-1,1.5864415E0,3.2227921E0,5.2873974E0,8.850886E0,-3.8656244E0,-3.010218E0,-2.3742707E0,-1.7783697E0,-1.2352844E0,-6.8999785E-1,-1.01363875E-1,5.4490453E-1,1.2404548E0,1.9871901E0,2.8060138E0,3.714518E0,4.7639227E0,6.087844E0,7.7815433E0,1.0438383E1,-4.151225E0,-3.630843E0,-3.2119784E0,-2.8470488E0,-2.4987864E0,-2.1162171E0,-1.8946311E0,-1.4310912E0,-1.4289358E0,-1.0032227E0,-8.874315E-1,-4.488966E-1,-3.2955945E-1,1.6205768E-1,3.570219E-1,9.0309185E-1,9.962901E-1,1.5422832E0,1.7143792E0,2.3060124E0,2.4316247E0,3.0499697E0,3.3106675E0,3.9491186E0,4.431305E0,5.0783567E0,5.693123E0,6.467653E0,7.431832E0,8.443555E0,9.492954E0,1.1353454E1,-1.306635E-1,-1.2028049E-1,-1.1294032E-1,-1.02246135E-1,-9.904527E-2,-8.5796736E-2,-9.041499E-2,-7.943539E-2,-7.904603E-2,-7.0399925E-2,-6.5789275E-2,-5.4632645E-2,-6.708165E-2,-5.473859E-2,-4.7587283E-2,-3.814486E-2,-5.312778E-2,-4.07948E-2,-3.3209916E-2,-2.3373941E-2,-3.032135E-2,-2.0931486E-2,-1.61161E-2,-3.6897063E-3,-2.0809771E-2,-7.7152974E-3,2.1236015E-3,1.5203937E-2,6.253445E-3,1.7189724E-2,2.1980619E-2,3.2751914E-2,2.1632906E-2,3.3577234E-2,4.2996086E-2,5.6415405E-2,4.571167E-2,5.8254108E-2,6.422948E-2,7.693742E-2,6.785905E-2,8.121102E-2,8.704544E-2,1.022966E-1,9.258046E-2,1.0722855E-1,1.1371666E-1,1.2975796E-1,1.2519418E-1,1.4272843E-1,1.441158E-1,1.6229478E-1,1.6294062E-1,1.8276882E-1,1.7947009E-1,2.0198536E-1,2.051824E-1,2.299605E-1,2.4198268E-1,2.6584938E-1,2.6871082E-1,2.931326E-1,3.2402208E-1,3.5039768E-1],"categories":[],"categories_nodes":[],"categories_segments":[],"categories_sizes":[],"default_left":[0,0,0,0,0,0,0,0,0,0,0,0,0,0,0,0,0,0,0,0,0,0,0,0,0,0,0,0,0,0,0,0,0,0,0,0,0,0,0,0,0,0,0,0,0,0,0,0,0,0,0,0,0,0,0,0,0,0,0,0,0,0,0,0,0,0,0,0,0,0,0,0,0,0,0,0,0,0,0,0,0,0,0,0,0,0,0,0,0,0,0,0,0,0,0,0,0,0,0,0,0,0,0,0,0,0,0,0,0,0,0,0,0,0,0,0,0,0,0,0,0,0,0,0,0,0,0],"id":6,"left_children":[1,3,5,7,9,11,13,15,17,19,21,23,25,27,29,31,33,35,37,39,41,43,45,47,49,51,53,55,57,59,61,63,65,67,69,71,73,75,77,79,81,83,85,87,89,91,93,95,97,99,101,103,105,107,109,111,113,115,117,119,121,123,125,-1,-1,-1,-1,-1,-1,-1,-1,-1,-1,-1,-1,-1,-1,-1,-1,-1,-1,-1,-1,-1,-1,-1,-1,-1,-1,-1,-1,-1,-1,-1,-1,-1,-1,-1,-1,-1,-1,-1,-1,-1,-1,-1,-1,-1,-1,-1,-1,-1,-1,-1,-1,-1,-1,-1,-1,-1,-1,-1,-1,-1,-1,-1,-1],"loss_changes":[1.0048254E6,1.7169619E5,1.8968519E5,2.5892531E4,2.6241027E4,3.1285625E4,4.0016688E4,4.4551562E3,3.9577344E3,3.0727422E3,3.8128853E3,3.8419844E3,4.1268125E3,5.2820938E3,7.0414375E3,5.984219E2,5.888594E2,6.786328E2,9.4159375E2,8.391426E2,1.0984141E3,1.0832551E3,1.244499E3,1.0948125E3,1.1123359E3,9.897656E2,8.6225E2,7.77125E2,7.107656E2,5.142969E2,1.3454531E3,9.986719E1,1.3546094E2,2.4523438E2,3.253203E2,2.9E2,1.5222461E2,4.1389844E2,1.4264941E2,2.3777344E2,1.9670312E2,2.956709E2,2.9901636E2,2.5401636E2,2.6296222E2,3.8915393E2,2.0325488E2,2.7720654E2,2.4184277E2,2.9639844E2,2.4575586E2,1.9423633E2,3.4176953E2,1.8892188E2,3.302578E2,2.9228125E2,3.2916406E2,2.2113281E2,2.8358594E2,1.7189062E2,5.932422E1,3.146875E1,2.084375E1,0E0,0E0,0E0,0E0,0E0,0E0,0E0,0E0,0E0,0E0,0E0,0E0,0E0,0E0,0E0,0E0,0E0,0E0,0E0,0E0,0E0,0E0,0E0,0E0,0E0,0E0,0E0,0E0,0E0,0E0,0E0,0E0,0E0,0E0,0E0,0E0,0E0,0E0,0E0,0E0,0E0,0E0,0E0,0E0,0E0,0E0,0E0,0E0,0E0,0E0,0E0,0E0,0E0,0E0,0E0,0E0,0E0,0E0,0E0,0E0,0E0,0E0,0E0,0E0],"parents":[2147483647,0,0,1,1,2,2,3,3,4,4,5,5,6,6,7,7,8,8,9,9,10,10,11,11,12,12,13,13,14,14,15,15,16,16,17,17,18,18,19,19,20,20,21,21,22,22,23,23,24,24,25,25,26,26,27,27,28,28,29,29,30,30,31,31,32,32,33,33,34,34,35,35,36,36,37,37,38,38,39,39,40,40,41,41,42,42,43,43,44,44,45,45,46,46,47,47,48,48,49,49,50,50,51,51,52,52,53,53,54,54,55,55,56,56,57,57,58,58,59,59,60,60,61,61,62,62],"right_children":[2,4,6,8,10,12,14,16,18,20,22,24,26,28,30,32,34,36,38,40,42,44,46,48,50,52,54,56,58,60,62,64,66,68,70,72,74,76,78,80,82,84,86,88,90,92,94,96,98,100,102,104,106,108,110,112,114,116,118,120,122,124,126,-1,-1,-1,-1,-1,-1,-1,-1,-1,-1,-1,-1,-1,-1,-1,-1,-1,-1,-1,-1,-1,-1,-1,-1,-1,-1,-1,-1,-1,-1,-1,-1,-1,-1,-1,-1,-1,-1,-1,-1,-1,-1,-1,-1,-1,-1,-1,-1,-1,-1,-1,-1,-1,-1,-1,-1,-1,-1,-1,-1,-1,-1,-1,-1],"split_conditions":[4.340136E-1,-2.734694E-1,1.4163265E0,-6.3265306E-1,5.3061225E-2,8.77551E-1,2.2489796E0,-8.612245E-1,-4.5714286E-1,-1.3061224E-1,2.217687E-1,6.4081633E-1,1.1306123E0,1.770068E0,2.812245E0,-9.918367E-1,-7.387755E-1,2.2580644E-1,4.1935483E-1,4.3010753E-2,2.4193548E-2,5.157165E-15,2.6612905E-1,4.3010753E-2,2.4193548E-2,-2.580645E-1,-3.2258064E-1,-3.2258064E-2,1.9551021E0,2.534694E0,3.187755E0,-1.0877551E0,1.3824885E-1,4.8387095E-1,5.157165E-15,-5.4013604E-1,1.2580645E0,-8.7096775E-1,-3.632653E-1,-1.1612903E0,8.3870965E-1,-2.0408163E-2,1.2580645E0,-1.3548387E0,1.4193548E0,3.414966E-1,3.3061224E-1,-8.3870965E-1,1.483871E0,7.632653E-1,7.7959186E-1,1.0244898E0,1.032258E0,1.277551E0,1.032258E0,1.5959184E0,1.5959184E0,2.2580644E-1,-3.9919356E-1,-6.236559E-1,2.4193548E-2,-4.516129E-1,-3.548387E-1,-1.306635E-1,-1.2028049E-1,-1.1294032E-1,-1.02246135E-1,-9.904527E-2,-8.5796736E-2,-9.041499E-2,-7.943539E-2,-7.904603E-2,-7.0399925E-2,-6.5789275E-2,-5.4632645E-2,-6.708165E-2,-5.473859E-2,-4.7587283E-2,-3.814486E-2,-5.312778E-2,-4.07948E-2,-3.3209916E-2,-2.3373941E-2,-3.032135E-2,-2.0931486E-2,-1.61161E-2,-3.6897063E-3,-2.0809771E-2,-7.7152974E-3,2.1236015E-3,1.5203937E-2,6.253445E-3,1.7189724E-2,2.1980619E-2,3.2751914E-2,2.1632906E-2,3.3577234E-2,4.2996086E-2,5.6415405E-2,4.571167E-2,5.8254108E-2,6.422948E-2,7.693742E-2,6.785905E-2,8.121102E-2,8.704544E-2,1.022966E-1,9.258046E-2,1.0722855E-1,1.1371666E-1,1.2975796E-1,1.2519418E-1,1.4272843E-1,1.441158E-1,1.6229478E-1,1.6294062E-1,1.8276882E-1,1.7947009E-1,2.0198536E-1,2.051824E-1,2.299605E-1,2.4198268E-1,2.6584938E-1,2.6871082E-1,2.931326E-1,3.2402208E-1,3.5039768E-1],"split_indices":[0,0,0,0,0,0,0,0,0,0,0,0,0,0,0,0,0,1,1,1,1,1,1,1,1,1,1,1,0,0,0,0,1,1,1,0,1,1,0,1,1,0,1,1,1,0,0,1,1,0,0,0,1,0,1,0,0,1,1,1,1,1,1,0,0,0,0,0,0,0,0,0,0,0,0,0,0,0,0,0,0,0,0,0,0,0,0,0,0,0,0,0,0,0,0,0,0,0,0,0,0,0,0,0,0,0,0,0,0,0,0,0,0,0,0,0,0,0,0,0,0,0,0,0,0,0,0],"split_type":[0,0,0,0,0,0,0,0,0,0,0,0,0,0,0,0,0,0,0,0,0,0,0,0,0,0,0,0,0,0,0,0,0,0,0,0,0,0,0,0,0,0,0,0,0,0,0,0,0,0,0,0,0,0,0,0,0,0,0,0,0,0,0,0,0,0,0,0,0,0,0,0,0,0,0,0,0,0,0,0,0,0,0,0,0,0,0,0,0,0,0,0,0,0,0,0,0,0,0,0,0,0,0,0,0,0,0,0,0,0,0,0,0,0,0,0,0,0,0,0,0,0,0,0,0,0,0],"sum_hessian":[2.15281E5,1.50472E5,6.4809E4,7.2141E4,7.8331E4,4.7929E4,1.688E4,2.7402E4,4.4739E4,4.1811E4,3.652E4,2.7733E4,2.0196E4,1.2682E4,4.198E3,9.183E3,1.8219E4,2.1327E4,2.3412E4,1.872E4,2.3091E4,1.8018E4,1.8502E4,1.4886E4,1.2847E4,1.0935E4,9.261E3,7.672E3,5.01E3,2.512E3,1.686E3,4.135E3,5.048E3,8.137E3,1.0082E4,1.4379E4,6.948E3,1.7536E4,5.876E3,1.0201E4,8.519E3,1.2693E4,1.0398E4,9.655E3,8.363E3,1.2138E4,6.364E3,8.232E3,6.654E3,6.927E3,5.92E3,4.319E3,6.616E3,3.409E3,5.852E3,3.736E3,3.936E3,2.465E3,2.545E3,1.652E3,8.6E2,8.35E2,8.51E2,1.682E3,2.453E3,3.142E3,1.906E3,6.48E3,1.657E3,5.479E3,4.603E3,7.58E3,6.799E3,5.508E3,1.44E3,2.978E3,1.4558E4,2.974E3,2.902E3,1.71E3,8.491E3,5.819E3,2.7E3,7.69E3,5.003E3,8.18E3,2.218E3,1.599E3,8.056E3,6.614E3,1.749E3,7.193E3,4.945E3,3.347E3,3.017E3,2.545E3,5.687E3,5.036E3,1.618E3,3.773E3,3.154E3,3.62E3,2.3E3,2.679E3,1.64E3,4.691E3,1.925E3,1.848E3,1.561E3,4.125E3,1.727E3,2.094E3,1.642E3,2.162E3,1.774E3,1.498E3,9.67E2,9.08E2,1.637E3,4.76E2,1.176E3,4.63E2,3.97E2,2.97E2,5.38E2,3.29E2,5.22E2],"tree_param":{"num_deleted":"0","num_feature":"14","num_nodes":"127","size_leaf_vector":"1"}},{"base_weights":[6.956448E-4,-1.4046131E0,3.1326575E0,-2.46918E0,-4.254133E-1,2.1284003E0,5.9124413E0,-3.2344656E0,-2.0343363E0,-9.468129E-1,1.5121321E-1,1.4737976E0,3.0577374E0,5.07354E0,8.583484E0,-3.8408475E0,-2.990694E0,-2.352031E0,-1.7626039E0,-1.2099785E0,-7.0131165E-1,-1.550993E-1,4.6096617E-1,1.1301118E0,1.8564379E0,2.6559422E0,3.5190895E0,4.5722027E0,5.9078083E0,7.540459E0,1.0120225E1,-4.1470184E0,-3.6840136E0,-3.2450151E0,-2.8422449E0,-2.5125647E0,-2.160748E0,-1.8752646E0,-1.4200115E0,-1.4338214E0,-1.0198764E0,-8.3800983E-1,-3.762847E-1,-3.579571E-1,1.14168614E-1,2.544517E-1,7.708738E-1,9.3065023E-1,1.4738936E0,1.6331578E0,2.2356882E0,2.3681211E0,2.9480345E0,3.3026202E0,3.9226708E0,4.2460713E0,4.8745794E0,5.5254226E0,6.277626E0,7.2011323E0,8.195627E0,9.205869E0,1.1004496E1,-1.2625447E-1,-1.1337039E-1,-1.1287639E-1,-9.978976E-2,-1.0144115E-1,-9.129414E-2,-8.799739E-2,-7.538265E-2,-7.972339E-2,-7.143364E-2,-6.953192E-2,-6.04047E-2,-6.032845E-2,-5.111422E-2,-4.867534E-2,-3.8967017E-2,-5.2472573E-2,-4.076983E-2,-3.4067113E-2,-2.4355564E-2,-3.284754E-2,-2.2231242E-2,-1.4193927E-2,-3.4467792E-3,-1.95396E-2,-8.153952E-3,5.0985604E-4,1.2486812E-2,-4.607149E-4,1.0905171E-2,1.9763201E-2,3.0988265E-2,2.0332444E-2,3.185615E-2,3.958536E-2,5.03427E-2,3.8792614E-2,5.2533343E-2,6.081476E-2,7.353348E-2,6.2310074E-2,7.531229E-2,8.481946E-2,9.996012E-2,9.253168E-2,1.0681024E-1,1.1115582E-1,1.255312E-1,1.18275486E-1,1.361359E-1,1.3667192E-1,1.5520535E-1,1.5031709E-1,1.7191385E-1,1.79171E-1,2.0010915E-1,2.0243554E-1,2.2458416E-1,2.3694177E-1,2.6105207E-1,2.6188165E-1,2.8581318E-1,3.052395E-1,3.3592135E-1],"categories":[],"categories_nodes":[],"categories_segments":[],"categories_sizes":[],"default_left":[0,0,0,0,0,0,0,0,0,0,0,0,0,0,0,0,0,0,0,0,0,0,0,0,0,0,0,0,0,0,0,0,0,0,0,0,0,0,0,0,0,0,0,0,0,0,0,0,0,0,0,0,0,0,0,0,0,0,0,0,0,0,0,0,0,0,0,0,0,0,0,0,0,0,0,0,0,0,0,0,0,0,0,0,0,0,0,0,0,0,0,0,0,0,0,0,0,0,0,0,0,0,0,0,0,0,0,0,0,0,0,0,0,0,0,0,0,0,0,0,0,0,0,0,0,0,0],"id":7,"left_children":[1,3,5,7,9,11,13,15,17,19,21,23,25,27,29,31,33,35,37,39,41,43,45,47,49,51,53,55,57,59,61,63,65,67,69,71,73,75,77,79,81,83,85,87,89,91,93,95,97,99,101,103,105,107,109,111,113,115,117,119,121,123,125,-1,-1,-1,-1,-1,-1,-1,-1,-1,-1,-1,-1,-1,-1,-1,-1,-1,-1,-1,-1,-1,-1,-1,-1,-1,-1,-1,-1,-1,-1,-1,-1,-1,-1,-1,-1,-1,-1,-1,-1,-1,-1,-1,-1,-1,-1,-1,-1,-1,-1,-1,-1,-1,-1,-1,-1,-1,-1,-1,-1,-1,-1,-1,-1],"loss_changes":[9.484834E5,1.5506066E5,1.8631144E5,2.3708719E4,2.3296166E4,2.9823203E4,3.9642625E4,3.8032812E3,3.9181562E3,2.6275234E3,3.4912224E3,3.780625E3,3.7449375E3,5.6086875E3,6.7016875E3,3.3770312E2,6.844531E2,6.364453E2,9.420078E2,8.33416E2,9.3480664E2,1.0106413E3,1.1703838E3,1.0374453E3,1.1478398E3,9.023203E2,8.08625E2,8.075E2,6.7690625E2,4.9770312E2,1.2736094E3,3.8203125E1,1.2308594E2,1.7446875E2,3.4003906E2,2.089375E2,2.1519531E2,4.243047E2,1.4583398E2,2.0935742E2,2.5415918E2,3.67833E2,1.5763245E2,2.6625586E2,2.331824E2,3.2321204E2,2.1371191E2,3.172461E2,1.7228711E2,3.4066797E2,2.2014453E2,2.1970312E2,2.3778125E2,3.3257812E2,1.6914844E2,3.3935938E2,3.895547E2,2.3146094E2,2.6359375E2,1.6121875E2,5.490625E1,4.0851562E1,1.7796875E1,0E0,0E0,0E0,0E0,0E0,0E0,0E0,0E0,0E0,0E0,0E0,0E0,0E0,0E0,0E0,0E0,0E0,0E0,0E0,0E0,0E0,0E0,0E0,0E0,0E0,0E0,0E0,0E0,0E0,0E0,0E0,0E0,0E0,0E0,0E0,0E0,0E0,0E0,0E0,0E0,0E0,0E0,0E0,0E0,0E0,0E0,0E0,0E0,0E0,0E0,0E0,0E0,0E0,0E0,0E0,0E0,0E0,0E0,0E0,0E0,0E0,0E0,0E0,0E0],"parents":[2147483647,0,0,1,1,2,2,3,3,4,4,5,5,6,6,7,7,8,8,9,9,10,10,11,11,12,12,13,13,14,14,15,15,16,16,17,17,18,18,19,19,20,20,21,21,22,22,23,23,24,24,25,25,26,26,27,27,28,28,29,29,30,30,31,31,32,32,33,33,34,34,35,35,36,36,37,37,38,38,39,39,40,40,41,41,42,42,43,43,44,44,45,45,46,46,47,47,48,48,49,49,50,50,51,51,52,52,53,53,54,54,55,55,56,56,57,57,58,58,59,59,60,60,61,61,62,62],"right_children":[2,4,6,8,10,12,14,16,18,20,22,24,26,28,30,32,34,36,38,40,42,44,46,48,50,52,54,56,58,60,62,64,66,68,70,72,74,76,78,80,82,84,86,88,90,92,94,96,98,100,102,104,106,108,110,112,114,116,118,120,122,124,126,-1,-1,-1,-1,-1,-1,-1,-1,-1,-1,-1,-1,-1,-1,-1,-1,-1,-1,-1,-1,-1,-1,-1,-1,-1,-1,-1,-1,-1,-1,-1,-1,-1,-1,-1,-1,-1,-1,-1,-1,-1,-1,-1,-1,-1,-1,-1,-1,-1,-1,-1,-1,-1,-1,-1,-1,-1,-1,-1,-1,-1,-1,-1,-1],"split_conditions":[4.122449E-1,-2.8163266E-1,1.3918368E0,-6.489796E-1,3.4013607E-2,8.612245E-1,2.2489796E0,-9.0204084E-1,-4.6938777E-1,-1.3061224E-1,2.0272109E-1,6.163265E-1,1.1061225E0,1.770068E0,2.812245E0,-1.0489796E0,-7.7959186E-1,5.157165E-15,4.1935483E-1,-6.451613E-2,3.3870968E-1,9.677419E-2,1.3824885E-1,2.2580644E-1,2.2580644E-1,-4.8387095E-2,2.9032257E-1,-4.8387095E-2,1.9551021E0,2.534694E0,3.187755E0,3.0107528E-1,4.8387095E-1,7.7419356E-2,4.1935483E-1,-5.5918366E-1,-5.5918366E-1,-3.632653E-1,-3.9591837E-1,-1.2258065E0,6.1290324E-1,-5.8064514E-1,1.4193548E0,-9.677419E-1,1.3118279E0,-7.741935E-1,1.3118279E0,-6.451613E-1,5.1985157E-1,-9.677419E-1,7.306122E-1,-9.677419E-1,1.6451613E0,1.2530612E0,1.2530612E0,1.555102E0,1.555102E0,-5.8064514E-1,1.9354838E-1,-3.2258064E-1,4.8387095E-1,-3.0967742E-1,-1.0806452E0,-1.2625447E-1,-1.1337039E-1,-1.1287639E-1,-9.978976E-2,-1.0144115E-1,-9.129414E-2,-8.799739E-2,-7.538265E-2,-7.972339E-2,-7.143364E-2,-6.953192E-2,-6.04047E-2,-6.032845E-2,-5.111422E-2,-4.867534E-2,-3.8967017E-2,-5.2472573E-2,-4.076983E-2,-3.4067113E-2,-2.4355564E-2,-3.284754E-2,-2.2231242E-2,-1.4193927E-2,-3.4467792E-3,-1.95396E-2,-8.153952E-3,5.0985604E-4,1.2486812E-2,-4.607149E-4,1.0905171E-2,1.9763201E-2,3.0988265E-2,2.0332444E-2,3.185615E-2,3.958536E-2,5.03427E-2,3.8792614E-2,5.2533343E-2,6.081476E-2,7.353348E-2,6.2310074E-2,7.531229E-2,8.481946E-2,9.996012E-2,9.253168E-2,1.0681024E-1,1.1115582E-1,1.255312E-1,1.18275486E-1,1.361359E-1,1.3667192E-1,1.5520535E-1,1.5031709E-1,1.7191385E-1,1.79171E-1,2.0010915E-1,2.0243554E-1,2.2458416E-1,2.3694177E-1,2.6105207E-1,2.6188165E-1,2.8581318E-1,3.052395E-1,3.3592135E-1],"split_indices":[0,0,0,0,0,0,0,0,0,0,0,0,0,0,0,0,0,1,1,1,1,1,1,1,1,1,1,1,0,0,0,1,1,1,1,0,0,0,0,1,1,1,1,1,1,1,1,1,0,1,0,1,1,0,0,0,0,1,1,1,1,1,1,0,0,0,0,0,0,0,0,0,0,0,0,0,0,0,0,0,0,0,0,0,0,0,0,0,0,0,0,0,0,0,0,0,0,0,0,0,0,0,0,0,0,0,0,0,0,0,0,0,0,0,0,0,0,0,0,0,0,0,0,0,0,0,0],"split_type":[0,0,0,0,0,0,0,0,0,0,0,0,0,0,0,0,0,0,0,0,0,0,0,0,0,0,0,0,0,0,0,0,0,0,0,0,0,0,0,0,0,0,0,0,0,0,0,0,0,0,0,0,0,0,0,0,0,0,0,0,0,0,0,0,0,0,0,0,0,0,0,0,0,0,0,0,0,0,0,0,0,0,0,0,0,0,0,0,0,0,0,0,0,0,0,0,0,0,0,0,0,0,0,0,0,0,0,0,0,0,0,0,0,0,0,0,0,0,0,0,0,0,0,0,0,0,0],"sum_hessian":[2.15495E5,1.48751E5,6.6744E4,7.1268E4,7.7483E4,4.9032E4,1.7712E4,2.582E4,4.5448E4,4.069E4,3.6793E4,2.877E4,2.0262E4,1.3481E4,4.231E3,7.399E3,1.8421E4,2.0948E4,2.45E4,1.9636E4,2.1054E4,1.8499E4,1.8294E4,1.5159E4,1.3611E4,1.0834E4,9.428E3,8.425E3,5.056E3,2.524E3,1.707E3,2.497E3,4.902E3,6.781E3,1.164E4,1.1382E4,9.566E3,1.8433E4,6.067E3,9.014E3,1.0622E4,1.4819E4,6.235E3,1.0551E4,7.948E3,1.098E4,7.314E3,9.596E3,5.563E3,8.571E3,5.04E3,5.462E3,5.372E3,6.143E3,3.285E3,4.061E3,4.364E3,2.494E3,2.562E3,1.671E3,8.53E2,8.45E2,8.62E2,2.13E3,3.67E2,4.011E3,8.91E2,4.037E3,2.744E3,9.114E3,2.526E3,5.404E3,5.978E3,4.622E3,4.944E3,1.0283E4,8.15E3,2.265E3,3.802E3,1.724E3,7.29E3,6.822E3,3.8E3,4.057E3,1.0762E4,4.548E3,1.687E3,2.393E3,8.158E3,6.015E3,1.933E3,3.16E3,7.82E3,5.126E3,2.188E3,3.281E3,6.315E3,3.173E3,2.39E3,2.211E3,6.36E3,2.567E3,2.473E3,1.799E3,3.663E3,4.094E3,1.278E3,3.334E3,2.809E3,1.803E3,1.482E3,1.998E3,2.063E3,2.12E3,2.244E3,7.18E2,1.776E3,1.451E3,1.111E3,6.55E2,1.016E3,5.48E2,3.05E2,3.52E2,4.93E2,1.73E2,6.89E2],"tree_param":{"num_deleted":"0","num_feature":"14","num_nodes":"127","size_leaf_vector":"1"}},{"base_weights":[-2.0399806E-3,-1.2709988E0,3.1739907E0,-2.2822456E0,-2.4929403E-1,2.2656162E0,5.926244E0,-3.0333536E0,-1.8480573E0,-7.084635E-1,3.917328E-1,1.6206093E0,3.1775827E0,5.1684155E0,8.597461E0,-3.5748298E0,-2.7726214E0,-2.1534097E0,-1.5596192E0,-9.0064824E-1,-1.665086E-1,1.6028318E-1,1.0017582E0,1.3680681E0,2.311422E0,2.5798995E0,3.5081794E0,4.680932E0,6.0470786E0,7.9346538E0,1.0574556E1,-3.7295175E0,-3.0871263E0,-2.8982472E0,-2.207487E0,-2.2947567E0,-1.6608391E0,-1.7768526E0,-1.1633855E0,-1.1321459E0,-5.943578E-1,-3.2041168E-1,3.8134393E-1,-4.6665946E-1,2.8188297E-1,8.150404E-1,1.4986897E0,1.0810837E0,1.7877301E0,1.9779247E0,2.7236307E0,2.2230413E0,3.0441918E0,3.0958729E0,3.966422E0,4.0354943E0,5.0308733E0,5.3183455E0,6.412424E0,7.488006E0,8.853793E0,2.8657192E-1,3.251043E-1,-1.19065195E-1,-1.0548516E-1,-9.7533844E-2,-8.153722E-2,-9.628916E-2,-8.395111E-2,-7.041777E-2,-5.2748334E-2,-8.068092E-2,-6.608986E-2,-5.3887054E-2,-3.5512175E-2,-6.924638E-2,-5.0288003E-2,-3.8947113E-2,-1.9611757E-2,-4.8782993E-2,-3.0527443E-2,-3.810035E-2,-1.4921949E-2,-1.7808389E-2,-9.67649E-4,7.3873587E-3,3.0495154E-2,-3.9062962E-2,-1.0533497E-2,6.104591E-4,1.748014E-2,1.603904E-2,3.283717E-2,4.0160995E-2,6.624034E-2,1.5292547E-2,3.7105598E-2,3.539275E-2,5.9471313E-2,5.1864646E-2,7.354719E-2,7.487991E-2,9.520781E-2,5.1421512E-2,7.2949834E-2,7.4188486E-2,9.739194E-2,8.665834E-2,1.1169033E-1,1.1340564E-1,1.3933177E-1,1.0260174E-1,1.2842086E-1,1.4445959E-1,1.6984425E-1,1.414362E-1,1.6675836E-1,1.8276726E-1,2.0620388E-1,2.1239598E-1,2.4829926E-1,2.4164574E-1,2.78071E-1],"categories":[],"categories_nodes":[],"categories_segments":[],"categories_sizes":[],"default_left":[0,0,0,0,0,0,0,0,0,0,0,0,0,0,0,0,0,0,0,0,0,0,0,0,0,0,0,0,0,0,0,0,0,0,0,0,0,0,0,0,0,0,0,0,0,0,0,0,0,0,0,0,0,0,0,0,0,0,0,0,0,0,0,0,0,0,0,0,0,0,0,0,0,0,0,0,0,0,0,0,0,0,0,0,0,0,0,0,0,0,0,0,0,0,0,0,0,0,0,0,0,0,0,0,0,0,0,0,0,0,0,0,0,0,0,0,0,0,0,0,0,0,0],"id":8,"left_children":[1,3,5,7,9,11,13,15,17,19,21,23,25,27,29,31,33,35,37,39,41,43,45,47,49,51,53,55,57,59,61,63,65,67,69,71,73,75,77,79,81,83,85,87,89,91,93,95,97,99,101,103,105,107,109,111,113,115,117,119,121,-1,-1,-1,-1,-1,-1,-1,-1,-1,-1,-1,-1,-1,-1,-1,-1,-1,-1,-1,-1,-1,-1,-1,-1,-1,-1,-1,-1,-1,-1,-1,-1,-1,-1,-1,-1,-1,-1,-1,-1,-1,-1,-1,-1,-1,-1,-1,-1,-1,-1,-1,-1,-1,-1,-1,-1,-1,-1,-1,-1,-1,-1],"loss_changes":[8.689984E5,1.591769E5,1.5387631E5,2.5243938E4,2.2557705E4,2.721764E4,3.0871E4,3.9921875E3,4.317203E3,4.650385E3,4.515457E3,4.7254844E3,3.7773438E3,5.0660938E3,4.331953E3,6.815625E2,1.3515E3,1.6542578E3,2.1693281E3,2.3360664E3,9.858445E2,1.7679147E3,8.1432324E2,2.3885938E3,9.906875E2,1.1236211E3,2.3172812E3,1.706875E3,1.0920156E3,9.6784375E2,1.16609375E2,3.406953E2,1.24103516E2,4.7632812E2,2.1357812E2,6.6303125E2,3.4050977E2,8.6601953E2,6.1299805E2,1.0598535E3,9.285713E2,7.18393E2,2.1938626E2,3.6267175E2,1.5277463E3,5.0033838E2,2.6845605E2,1.0485557E3,9.5076953E2,4.6822656E2,3.224453E2,4.0520898E2,3.3285547E2,8.3227344E2,7.1741406E2,3.901953E2,6.440703E2,1.7715234E2,3.7066406E2,4.871953E2,1.9283594E2,0E0,0E0,0E0,0E0,0E0,0E0,0E0,0E0,0E0,0E0,0E0,0E0,0E0,0E0,0E0,0E0,0E0,0E0,0E0,0E0,0E0,0E0,0E0,0E0,0E0,0E0,0E0,0E0,0E0,0E0,0E0,0E0,0E0,0E0,0E0,0E0,0E0,0E0,0E0,0E0,0E0,0E0,0E0,0E0,0E0,0E0,0E0,0E0,0E0,0E0,0E0,0E0,0E0,0E0,0E0,0E0,0E0,0E0,0E0,0E0,0E0,0E0],"parents":[2147483647,0,0,1,1,2,2,3,3,4,4,5,5,6,6,7,7,8,8,9,9,10,10,11,11,12,12,13,13,14,14,15,15,16,16,17,17,18,18,19,19,20,20,21,21,22,22,23,23,24,24,25,25,26,26,27,27,28,28,29,29,30,30,31,31,32,32,33,33,34,34,35,35,36,36,37,37,38,38,39,39,40,40,41,41,42,42,43,43,44,44,45,45,46,46,47,47,48,48,49,49,50,50,51,51,52,52,53,53,54,54,55,55,56,56,57,57,58,58,59,59,60,60],"right_children":[2,4,6,8,10,12,14,16,18,20,22,24,26,28,30,32,34,36,38,40,42,44,46,48,50,52,54,56,58,60,62,64,66,68,70,72,74,76,78,80,82,84,86,88,90,92,94,96,98,100,102,104,106,108,110,112,114,116,118,120,122,-1,-1,-1,-1,-1,-1,-1,-1,-1,-1,-1,-1,-1,-1,-1,-1,-1,-1,-1,-1,-1,-1,-1,-1,-1,-1,-1,-1,-1,-1,-1,-1,-1,-1,-1,-1,-1,-1,-1,-1,-1,-1,-1,-1,-1,-1,-1,-1,-1,-1,-1,-1,-1,-1,-1,-1,-1,-1,-1,-1,-1,-1],"split_conditions":[4.77551E-1,-2.3265307E-1,1.4816327E0,-6.244898E-1,1.2108844E-1,9.2743766E-1,2.3714285E0,-8.612245E-1,-4.312925E-1,4.1935483E-1,4.1935483E-1,4.8387095E-1,-3.8709676E-1,1.8816327E0,3.187755E0,4.1935483E-1,6.451613E-1,4.8387095E-1,2.2580644E-1,-4.2176872E-2,1.8064516E0,-1.1612903E0,1.8064516E0,7.1428573E-1,6.979592E-1,1.2040817E0,1.1768707E0,-4.8387095E-1,-5.8064514E-1,2.8136055E0,-1.2903225E0,-9.918367E-1,1.2580645E0,-4.2741936E-1,1.8064516E0,-5.8064514E-1,1.6451613E0,-9.677419E-1,1.4193548E0,-7.741935E-1,-1.2258065E0,-6.122449E-2,4.322581E0,-4.080645E0,2.9387754E-1,2.829932E-1,4.322581E0,-9.677419E-1,-9.677419E-1,1.6451613E0,1.8064516E0,-1.548387E0,-1.7419355E0,1.032258E0,1.2580645E0,-1.7419355E0,1.032258E0,-1.9354838E0,2.1346939E0,2.6612905E-1,-5.8064514E-1,2.8657192E-1,3.251043E-1,-1.19065195E-1,-1.0548516E-1,-9.7533844E-2,-8.153722E-2,-9.628916E-2,-8.395111E-2,-7.041777E-2,-5.2748334E-2,-8.068092E-2,-6.608986E-2,-5.3887054E-2,-3.5512175E-2,-6.924638E-2,-5.0288003E-2,-3.8947113E-2,-1.9611757E-2,-4.8782993E-2,-3.0527443E-2,-3.810035E-2,-1.4921949E-2,-1.7808389E-2,-9.67649E-4,7.3873587E-3,3.0495154E-2,-3.9062962E-2,-1.0533497E-2,6.104591E-4,1.748014E-2,1.603904E-2,3.283717E-2,4.0160995E-2,6.624034E-2,1.5292547E-2,3.7105598E-2,3.539275E-2,5.9471313E-2,5.1864646E-2,7.354719E-2,7.487991E-2,9.520781E-2,5.1421512E-2,7.2949834E-2,7.4188486E-2,9.739194E-2,8.665834E-2,1.1169033E-1,1.1340564E-1,1.3933177E-1,1.0260174E-1,1.2842086E-1,1.4445959E-1,1.6984425E-1,1.414362E-1,1.6675836E-1,1.8276726E-1,2.0620388E-1,2.1239598E-1,2.4829926E-1,2.4164574E-1,2.78071E-1],"split_indices":[3,3,3,3,3,3,3,3,3,1,1,1,1,3,3,1,1,1,1,3,1,1,1,3,3,3,3,1,1,3,1,3,1,1,1,1,1,1,1,1,1,3,1,1,3,3,1,1,1,1,1,1,1,1,1,1,1,1,3,1,1,0,0,0,0,0,0,0,0,0,0,0,0,0,0,0,0,0,0,0,0,0,0,0,0,0,0,0,0,0,0,0,0,0,0,0,0,0,0,0,0,0,0,0,0,0,0,0,0,0,0,0,0,0,0,0,0,0,0,0,0,0,0],"split_type":[0,0,0,0,0,0,0,0,0,0,0,0,0,0,0,0,0,0,0,0,0,0,0,0,0,0,0,0,0,0,0,0,0,0,0,0,0,0,0,0,0,0,0,0,0,0,0,0,0,0,0,0,0,0,0,0,0,0,0,0,0,0,0,0,0,0,0,0,0,0,0,0,0,0,0,0,0,0,0,0,0,0,0,0,0,0,0,0,0,0,0,0,0,0,0,0,0,0,0,0,0,0,0,0,0,0,0,0,0,0,0,0,0,0,0,0,0,0,0,0,0,0,0],"sum_hessian":[2.15617E5,1.54063E5,6.1554E4,7.7427E4,7.6636E4,4.6281E4,1.5273E4,2.836E4,4.9067E4,4.4652E4,3.1984E4,2.711E4,1.9171E4,1.19E4,3.373E3,9.213E3,1.9147E4,2.3831E4,2.5236E4,3.2962E4,1.169E4,2.3188E4,8.796E3,1.9855E4,7.255E3,6.831E3,1.234E4,7.658E3,4.242E3,2.53E3,8.43E2,6.989E3,2.224E3,1.5661E4,3.486E3,1.8514E4,5.317E3,1.6297E4,8.939E3,1.8771E4,1.4191E4,9.127E3,2.563E3,3.766E3,1.9422E4,6.396E3,2.4E3,1.1794E4,8.061E3,4.014E3,3.241E3,3.866E3,2.965E3,6.5E3,5.84E3,2.697E3,4.961E3,1.422E3,2.82E3,1.709E3,8.21E2,1.8E2,6.63E2,3.285E3,3.704E3,1.534E3,6.9E2,3.795E3,1.1866E4,2.655E3,8.31E2,3.487E3,1.5027E4,4.139E3,1.178E3,2.59E3,1.3707E4,7.067E3,1.872E3,3.531E3,1.524E4,1.779E3,1.2412E4,4.684E3,4.443E3,2.115E3,4.48E2,4.56E2,3.31E3,1.039E4,9.032E3,3.195E3,3.201E3,1.961E3,4.39E2,2.528E3,9.266E3,1.957E3,6.104E3,2.634E3,1.38E3,2.157E3,1.084E3,1.127E3,2.739E3,7.79E2,2.186E3,4.89E3,1.61E3,4.587E3,1.253E3,7.73E2,1.924E3,3.704E3,1.257E3,4.11E2,1.011E3,1.673E3,1.147E3,1.133E3,5.76E2,2.88E2,5.33E2],"tree_param":{"num_deleted":"0","num_feature":"14","num_nodes":"123","size_leaf_vector":"1"}},{"base_weights":[4.0493677E-3,-1.2689424E0,2.9957764E0,-2.2479131E0,-3.1363508E-1,2.0716846E0,5.5812936E0,-2.963261E0,-1.833146E0,-7.67841E-1,2.6731345E-1,1.4457512E0,2.90512E0,4.771458E0,7.988529E0,-3.5087018E0,-2.7235823E0,-2.1139152E0,-1.5527849E0,-9.499737E-1,-2.4945283E-1,4.8151016E-2,8.497755E-1,1.0907402E0,1.9010164E0,2.4227843E0,3.2827713E0,4.2932687E0,5.4948955E0,7.00945E0,9.453723E0,-3.6552725E0,-3.0196037E0,-2.8466232E0,-2.182482E0,-2.253282E0,-1.6365063E0,-1.802464E0,-1.2261423E0,-1.2125605E0,-7.0996183E-1,-3.945051E-1,2.8386182E-1,-2.111239E-1,3.3129066E-1,6.726027E-1,1.3341182E0,8.16158E-1,1.4519992E0,1.7166036E0,2.5598414E0,2.0549722E0,2.855674E0,2.899613E0,3.7365713E0,3.6705596E0,4.6199355E0,4.819646E0,5.8288965E0,6.347177E0,7.4346023E0,8.598272E0,1.0276102E1,-1.1669774E-1,-1.044481E-1,-9.518031E-2,-8.024661E-2,-9.1984145E-2,-8.1130214E-2,-7.077166E-2,-5.580344E-2,-7.654765E-2,-6.4161554E-2,-5.298838E-2,-3.5340827E-2,-7.041786E-2,-5.1385596E-2,-4.062083E-2,-2.2019591E-2,-5.0617393E-2,-3.3024717E-2,-3.7923206E-2,-1.820677E-2,-1.939311E-2,-3.5227416E-3,6.481981E-3,4.2627074E-2,-2.2549363E-2,-2.5091053E-3,-7.169332E-3,1.4000649E-2,1.2209343E-2,2.914786E-2,3.5531722E-2,5.8928255E-2,2.6007823E-3,2.8263526E-2,2.5250599E-2,4.83861E-2,4.2748976E-2,6.3231595E-2,7.2992526E-2,1.0906133E-1,4.3525234E-2,6.696168E-2,6.270285E-2,9.0392604E-2,8.2036406E-2,1.0864518E-1,1.059873E-1,1.3020845E-1,7.739264E-2,1.138795E-1,1.3305409E-1,1.5958305E-1,1.305514E-1,1.5211418E-1,1.6842653E-1,1.9389415E-1,1.6638066E-1,1.9888274E-1,2.128508E-1,2.427339E-1,2.3576243E-1,2.695273E-1,2.8065225E-1,3.17159E-1],"categories":[],"categories_nodes":[],"categories_segments":[],"categories_sizes":[],"default_left":[0,0,0,0,0,0,0,0,0,0,0,0,0,0,0,0,0,0,0,0,0,0,0,0,0,0,0,0,0,0,0,0,0,0,0,0,0,0,0,0,0,0,0,0,0,0,0,0,0,0,0,0,0,0,0,0,0,0,0,0,0,0,0,0,0,0,0,0,0,0,0,0,0,0,0,0,0,0,0,0,0,0,0,0,0,0,0,0,0,0,0,0,0,0,0,0,0,0,0,0,0,0,0,0,0,0,0,0,0,0,0,0,0,0,0,0,0,0,0,0,0,0,0,0,0,0,0],"id":9,"left_children":[1,3,5,7,9,11,13,15,17,19,21,23,25,27,29,31,33,35,37,39,41,43,45,47,49,51,53,55,57,59,61,63,65,67,69,71,73,75,77,79,81,83,85,87,89,91,93,95,97,99,101,103,105,107,109,111,113,115,117,119,121,123,125,-1,-1,-1,-1,-1,-1,-1,-1,-1,-1,-1,-1,-1,-1,-1,-1,-1,-1,-1,-1,-1,-1,-1,-1,-1,-1,-1,-1,-1,-1,-1,-1,-1,-1,-1,-1,-1,-1,-1,-1,-1,-1,-1,-1,-1,-1,-1,-1,-1,-1,-1,-1,-1,-1,-1,-1,-1,-1,-1,-1,-1,-1,-1,-1],"loss_changes":[8.211352E5,1.4145117E5,1.5375381E5,2.2156812E4,2.0200148E4,2.4729188E4,3.2991688E4,3.5724219E3,3.7179062E3,4.0557754E3,4.287581E3,4.3738125E3,3.6944375E3,4.3606875E3,6.0456875E3,5.866328E2,1.2605781E3,1.5668906E3,1.9268984E3,2.0022207E3,8.643944E2,1.791922E3,7.8651465E2,1.5076875E3,1.4356289E3,1.4151445E3,1.9697344E3,1.5346719E3,1.1060781E3,6.694844E2,1.1054531E3,2.4632031E2,9.186328E1,4.746172E2,1.9550781E2,6.179297E2,3.1487598E2,6.494375E2,6.438877E2,8.024492E2,9.4753125E2,6.128656E2,1.8336171E2,8.7766254E2,9.011008E2,5.3336865E2,2.28646E2,7.9430664E2,6.42959E2,1.053541E3,3.4270508E2,5.1280664E2,4.8639453E2,7.254297E2,6.23625E2,3.4865625E2,6.2072656E2,1.7170312E2,4.188125E2,1.8751172E2,2.8427344E2,1.6467969E2,1.305625E2,0E0,0E0,0E0,0E0,0E0,0E0,0E0,0E0,0E0,0E0,0E0,0E0,0E0,0E0,0E0,0E0,0E0,0E0,0E0,0E0,0E0,0E0,0E0,0E0,0E0,0E0,0E0,0E0,0E0,0E0,0E0,0E0,0E0,0E0,0E0,0E0,0E0,0E0,0E0,0E0,0E0,0E0,0E0,0E0,0E0,0E0,0E0,0E0,0E0,0E0,0E0,0E0,0E0,0E0,0E0,0E0,0E0,0E0,0E0,0E0,0E0,0E0,0E0,0E0],"parents":[2147483647,0,0,1,1,2,2,3,3,4,4,5,5,6,6,7,7,8,8,9,9,10,10,11,11,12,12,13,13,14,14,15,15,16,16,17,17,18,18,19,19,20,20,21,21,22,22,23,23,24,24,25,25,26,26,27,27,28,28,29,29,30,30,31,31,32,32,33,33,34,34,35,35,36,36,37,37,38,38,39,39,40,40,41,41,42,42,43,43,44,44,45,45,46,46,47,47,48,48,49,49,50,50,51,51,52,52,53,53,54,54,55,55,56,56,57,57,58,58,59,59,60,60,61,61,62,62],"right_children":[2,4,6,8,10,12,14,16,18,20,22,24,26,28,30,32,34,36,38,40,42,44,46,48,50,52,54,56,58,60,62,64,66,68,70,72,74,76,78,80,82,84,86,88,90,92,94,96,98,100,102,104,106,108,110,112,114,116,118,120,122,124,126,-1,-1,-1,-1,-1,-1,-1,-1,-1,-1,-1,-1,-1,-1,-1,-1,-1,-1,-1,-1,-1,-1,-1,-1,-1,-1,-1,-1,-1,-1,-1,-1,-1,-1,-1,-1,-1,-1,-1,-1,-1,-1,-1,-1,-1,-1,-1,-1,-1,-1,-1,-1,-1,-1,-1,-1,-1,-1,-1,-1,-1,-1,-1,-1],"split_conditions":[4.4489795E-1,-2.5442177E-1,1.4163265E0,-6.3265306E-1,8.2993194E-2,8.77551E-1,2.2489796E0,-8.77551E-1,-4.367347E-1,4.1935483E-1,4.1935483E-1,5.157165E-15,-1.9354838E-1,1.770068E0,2.8136055E0,4.516129E-1,6.1290324E-1,4.8387095E-1,1.09851785E-1,-9.3877554E-2,1.8064516E0,2.5714287E-1,1.8064516E0,6.571429E-1,1.6451613E0,1.1306123E0,1.1306123E0,-4.8387095E-1,-5.8064514E-1,-4.2741936E-1,3.187755E0,-1.0217687E0,1.2580645E0,-7.5510204E-1,1.4193548E0,-3.9919356E-1,1.6451613E0,-1.1612903E0,1.2580645E0,-7.741935E-1,-9.677419E-1,-8.571429E-2,7.3278317E0,-9.677419E-1,-1.032258E0,2.5714287E-1,4.322581E0,-1.548387E0,-1.3548387E0,6.571429E-1,5.274194E0,-1.6451613E0,-1.9354838E0,1.6451613E0,1.2580645E0,-3.096774E0,1.2580645E0,-1.7419355E0,1.032258E0,-1.9354838E0,2.534694E0,-5.8064514E-1,-1.0806452E0,-1.1669774E-1,-1.044481E-1,-9.518031E-2,-8.024661E-2,-9.1984145E-2,-8.1130214E-2,-7.077166E-2,-5.580344E-2,-7.654765E-2,-6.4161554E-2,-5.298838E-2,-3.5340827E-2,-7.041786E-2,-5.1385596E-2,-4.062083E-2,-2.2019591E-2,-5.0617393E-2,-3.3024717E-2,-3.7923206E-2,-1.820677E-2,-1.939311E-2,-3.5227416E-3,6.481981E-3,4.2627074E-2,-2.2549363E-2,-2.5091053E-3,-7.169332E-3,1.4000649E-2,1.2209343E-2,2.914786E-2,3.5531722E-2,5.8928255E-2,2.6007823E-3,2.8263526E-2,2.5250599E-2,4.83861E-2,4.2748976E-2,6.3231595E-2,7.2992526E-2,1.0906133E-1,4.3525234E-2,6.696168E-2,6.270285E-2,9.0392604E-2,8.2036406E-2,1.0864518E-1,1.059873E-1,1.3020845E-1,7.739264E-2,1.138795E-1,1.3305409E-1,1.5958305E-1,1.305514E-1,1.5211418E-1,1.6842653E-1,1.9389415E-1,1.6638066E-1,1.9888274E-1,2.128508E-1,2.427339E-1,2.3576243E-1,2.695273E-1,2.8065225E-1,3.17159E-1],"split_indices":[3,3,3,3,3,3,3,3,3,1,1,1,1,3,3,1,1,1,1,3,1,3,1,3,1,3,3,1,1,1,3,3,1,3,1,1,1,1,1,1,1,3,1,1,1,3,1,1,1,3,1,1,1,1,1,1,1,1,1,1,3,1,1,0,0,0,0,0,0,0,0,0,0,0,0,0,0,0,0,0,0,0,0,0,0,0,0,0,0,0,0,0,0,0,0,0,0,0,0,0,0,0,0,0,0,0,0,0,0,0,0,0,0,0,0,0,0,0,0,0,0,0,0,0,0,0,0],"split_type":[0,0,0,0,0,0,0,0,0,0,0,0,0,0,0,0,0,0,0,0,0,0,0,0,0,0,0,0,0,0,0,0,0,0,0,0,0,0,0,0,0,0,0,0,0,0,0,0,0,0,0,0,0,0,0,0,0,0,0,0,0,0,0,0,0,0,0,0,0,0,0,0,0,0,0,0,0,0,0,0,0,0,0,0,0,0,0,0,0,0,0,0,0,0,0,0,0,0,0,0,0,0,0,0,0,0,0,0,0,0,0,0,0,0,0,0,0,0,0,0,0,0,0,0,0,0,0],"sum_hessian":[2.15607E5,1.5125E5,6.4357E4,7.4699E4,7.6551E4,4.7413E4,1.6944E4,2.7413E4,4.7286E4,4.2962E4,3.3589E4,2.7079E4,2.0334E4,1.2681E4,4.263E3,8.364E3,1.9049E4,2.3622E4,2.3664E4,3.1791E4,1.1171E4,2.4407E4,9.182E3,1.5217E4,1.1862E4,8.933E3,1.1401E4,7.639E3,5.042E3,2.559E3,1.704E3,6.43E3,1.934E3,1.5516E4,3.533E3,1.8281E4,5.341E3,1.3409E4,1.0255E4,1.5179E4,1.6612E4,8.783E3,2.388E3,1.274E4,1.1667E4,6.725E3,2.457E3,8.648E3,6.569E3,9.271E3,2.591E3,4.833E3,4.1E3,6.186E3,5.215E3,2.633E3,5.006E3,1.674E3,3.368E3,1.007E3,1.552E3,8.41E2,8.63E2,2.725E3,3.705E3,1.333E3,6.01E2,6.093E3,9.423E3,2.278E3,1.255E3,5.066E3,1.3215E4,4.16E3,1.181E3,1.89E3,1.1519E4,8.138E3,2.117E3,2.889E3,1.229E4,2.603E3,1.4009E4,4.599E3,4.184E3,2.255E3,1.33E2,2.43E3,1.031E4,2.238E3,9.429E3,3.563E3,3.162E3,1.988E3,4.69E2,1.274E3,7.374E3,1.372E3,5.197E3,5.314E3,3.957E3,2.321E3,2.7E2,1.098E3,3.735E3,7.02E2,3.398E3,5.039E3,1.147E3,3.905E3,1.31E3,2.74E2,2.359E3,3.966E3,1.04E3,5.91E2,1.083E3,2.524E3,8.44E2,2.68E2,7.39E2,1.031E3,5.21E2,2.96E2,5.45E2,2.18E2,6.45E2],"tree_param":{"num_deleted":"0","num_feature":"14","num_nodes":"127","size_leaf_vector":"1"}},{"base_weights":[-1.294375E-4,-1.1968505E0,3.0615234E0,-2.1771872E0,-2.2000885E-1,2.1900558E0,5.645669E0,-2.854515E0,-1.7224563E0,-6.710448E-1,3.9182702E-1,1.5930824E0,3.059156E0,4.9240093E0,8.185646E0,-3.341189E0,-2.565532E0,-1.979941E0,-1.439816E0,-8.9643395E-1,-3.657841E-1,1.3844146E-1,6.8836427E-1,1.3062624E0,2.00477E0,2.7052984E0,3.4910157E0,4.462751E0,5.7569194E0,7.5647254E0,1.00412855E1,-3.6412733E0,-3.1133943E0,-2.7143652E0,-2.3845768E0,-2.1565466E0,-1.8208919E0,-1.6632589E0,-1.2798475E0,-1.1193534E0,-7.289538E-1,-5.833994E-1,-1.6250208E-1,-6.632254E-2,3.840514E-1,4.3951857E-1,9.205218E-1,1.1417376E0,1.6914834E0,1.8257561E0,2.4181507E0,2.4785607E0,3.036488E0,3.0798807E0,3.6918774E0,4.195115E0,4.7939014E0,5.3255105E0,6.0545964E0,7.1328435E0,8.415635E0,2.874928E-1,3.0967587E-1,-1.1607585E-1,-1.0567102E-1,-9.714408E-2,-8.7249555E-2,-8.6715505E-2,-7.719467E-2,-7.708088E-2,-6.717421E-2,-6.835854E-2,-5.9985116E-2,-5.9588328E-2,-5.0217982E-2,-6.0789697E-2,-4.8163995E-2,-4.1058354E-2,-3.1662337E-2,-3.859312E-2,-2.9975614E-2,-2.762869E-2,-1.8333664E-2,-2.7235467E-2,-1.5520346E-2,-7.965152E-3,1.9574014E-3,-8.52615E-3,9.3631726E-4,8.551732E-3,2.0098895E-2,1.822297E-3,1.5212446E-2,2.4008216E-2,3.4239974E-2,2.798732E-2,3.8849615E-2,4.4404916E-2,5.5771347E-2,4.554864E-2,5.8663823E-2,6.727324E-2,7.7126846E-2,6.561733E-2,7.895046E-2,8.501692E-2,9.6708775E-2,8.498138E-2,9.77051E-2,1.0673594E-1,1.21110186E-1,1.1896705E-1,1.3669048E-1,1.3154903E-1,1.5008475E-1,1.5247834E-1,1.7289664E-1,1.637001E-1,1.8738265E-1,2.0552044E-1,2.2817051E-1,2.3724331E-1,2.6011845E-1],"categories":[],"categories_nodes":[],"categories_segments":[],"categories_sizes":[],"default_left":[0,0,0,0,0,0,0,0,0,0,0,0,0,0,0,0,0,0,0,0,0,0,0,0,0,0,0,0,0,0,0,0,0,0,0,0,0,0,0,0,0,0,0,0,0,0,0,0,0,0,0,0,0,0,0,0,0,0,0,0,0,0,0,0,0,0,0,0,0,0,0,0,0,0,0,0,0,0,0,0,0,0,0,0,0,0,0,0,0,0,0,0,0,0,0,0,0,0,0,0,0,0,0,0,0,0,0,0,0,0,0,0,0,0,0,0,0,0,0,0,0,0,0],"id":10,"left_children":[1,3,5,7,9,11,13,15,17,19,21,23,25,27,29,31,33,35,37,39,41,43,45,47,49,51,53,55,57,59,61,63,65,67,69,71,73,75,77,79,81,83,85,87,89,91,93,95,97,99,101,103,105,107,109,111,113,115,117,119,121,-1,-1,-1,-1,-1,-1,-1,-1,-1,-1,-1,-1,-1,-1,-1,-1,-1,-1,-1,-1,-1,-1,-1,-1,-1,-1,-1,-1,-1,-1,-1,-1,-1,-1,-1,-1,-1,-1,-1,-1,-1,-1,-1,-1,-1,-1,-1,-1,-1,-1,-1,-1,-1,-1,-1,-1,-1,-1,-1,-1,-1,-1],"loss_changes":[7.8900056E5,1.4826444E5,1.362695E5,2.379425E4,2.1401594E4,2.3474406E4,2.7929156E4,4.3548438E3,3.3610469E3,3.0708438E3,2.472457E3,3.1645938E3,2.8046562E3,4.5380625E3,3.8074375E3,7.768594E2,5.166094E2,6.7441406E2,7.849961E2,9.5738086E2,8.385974E2,8.927046E2,8.751748E2,9.996758E2,8.094336E2,7.517422E2,6.716094E2,6.5565625E2,5.0795312E2,8.661719E2,3.7421875E0,1.19171875E2,1.5704297E2,2.5657812E2,2.2930078E2,2.1378906E2,3.05125E2,1.8856836E2,2.5388672E2,2.1916699E2,3.308037E2,1.9537085E2,2.3013797E2,2.0577084E2,2.279314E2,1.8715198E2,2.0675146E2,3.5293652E2,1.637666E2,3.0270703E2,8.20293E1,2.613711E2,1.4497656E2,1.0830859E2,2.4084375E2,3.31125E2,2.6691406E2,1.521289E2,2.4830469E2,1.6864062E2,3.6070312E1,0E0,0E0,0E0,0E0,0E0,0E0,0E0,0E0,0E0,0E0,0E0,0E0,0E0,0E0,0E0,0E0,0E0,0E0,0E0,0E0,0E0,0E0,0E0,0E0,0E0,0E0,0E0,0E0,0E0,0E0,0E0,0E0,0E0,0E0,0E0,0E0,0E0,0E0,0E0,0E0,0E0,0E0,0E0,0E0,0E0,0E0,0E0,0E0,0E0,0E0,0E0,0E0,0E0,0E0,0E0,0E0,0E0,0E0,0E0,0E0,0E0,0E0],"parents":[2147483647,0,0,1,1,2,2,3,3,4,4,5,5,6,6,7,7,8,8,9,9,10,10,11,11,12,12,13,13,14,14,15,15,16,16,17,17,18,18,19,19,20,20,21,21,22,22,23,23,24,24,25,25,26,26,27,27,28,28,29,29,30,30,31,31,32,32,33,33,34,34,35,35,36,36,37,37,38,38,39,39,40,40,41,41,42,42,43,43,44,44,45,45,46,46,47,47,48,48,49,49,50,50,51,51,52,52,53,53,54,54,55,55,56,56,57,57,58,58,59,59,60,60],"right_children":[2,4,6,8,10,12,14,16,18,20,22,24,26,28,30,32,34,36,38,40,42,44,46,48,50,52,54,56,58,60,62,64,66,68,70,72,74,76,78,80,82,84,86,88,90,92,94,96,98,100,102,104,106,108,110,112,114,116,118,120,122,-1,-1,-1,-1,-1,-1,-1,-1,-1,-1,-1,-1,-1,-1,-1,-1,-1,-1,-1,-1,-1,-1,-1,-1,-1,-1,-1,-1,-1,-1,-1,-1,-1,-1,-1,-1,-1,-1,-1,-1,-1,-1,-1,-1,-1,-1,-1,-1,-1,-1,-1,-1,-1,-1,-1,-1,-1,-1,-1,-1,-1,-1],"split_conditions":[4.8752835E-1,-2.3265307E-1,1.4816327E0,-6E-1,1.2108844E-1,9.4693875E-1,2.3714285E0,-8.2040817E-1,-4.0408164E-1,-3.6734693E-2,3.0204082E-1,7.306122E-1,1.2040817E0,1.8816327E0,3.187755E0,-9.6734697E-1,5.157165E-15,-5.157165E-15,-1.2903225E-1,-1.2903225E-1,-3.2258064E-2,5.157165E-15,-6.451613E-2,4.1935483E-1,4.1935483E-1,1.3824885E-1,-3.8709676E-1,1.677551E0,2.044898E0,2.812245E0,-3.548387E-1,-1.0877551E0,1.3824885E-1,-7.0765305E-1,-7.0765305E-1,-4.884354E-1,-5.020408E-1,-1.548387E0,7.096774E-1,-1.5102041E-1,-1.5918367E-1,-1.3548387E0,8.3870965E-1,-7.741935E-1,1.2580645E0,-1.548387E0,8.548387E-1,-4.516129E-1,5.9183675E-1,-7.741935E-1,8.2857144E-1,-7.741935E-1,1.0653061E0,1.3061224E0,1.032258E0,2.2580644E-1,-3.9919356E-1,4.1935483E-1,-8.7096775E-1,3.655914E-1,-4.516129E-1,2.874928E-1,3.0967587E-1,-1.1607585E-1,-1.0567102E-1,-9.714408E-2,-8.7249555E-2,-8.6715505E-2,-7.719467E-2,-7.708088E-2,-6.717421E-2,-6.835854E-2,-5.9985116E-2,-5.9588328E-2,-5.0217982E-2,-6.0789697E-2,-4.8163995E-2,-4.1058354E-2,-3.1662337E-2,-3.859312E-2,-2.9975614E-2,-2.762869E-2,-1.8333664E-2,-2.7235467E-2,-1.5520346E-2,-7.965152E-3,1.9574014E-3,-8.52615E-3,9.3631726E-4,8.551732E-3,2.0098895E-2,1.822297E-3,1.5212446E-2,2.4008216E-2,3.4239974E-2,2.798732E-2,3.8849615E-2,4.4404916E-2,5.5771347E-2,4.554864E-2,5.8663823E-2,6.727324E-2,7.7126846E-2,6.561733E-2,7.895046E-2,8.501692E-2,9.6708775E-2,8.498138E-2,9.77051E-2,1.0673594E-1,1.21110186E-1,1.1896705E-1,1.3669048E-1,1.3154903E-1,1.5008475E-1,1.5247834E-1,1.7289664E-1,1.637001E-1,1.8738265E-1,2.0552044E-1,2.2817051E-1,2.3724331E-1,2.6011845E-1],"split_indices":[0,0,0,0,0,0,0,0,0,0,0,0,0,0,0,0,1,1,1,1,1,1,1,1,1,1,1,0,0,0,1,0,1,0,0,0,0,1,1,0,0,1,1,1,1,1,1,1,0,1,0,1,0,0,1,1,1,1,1,1,1,0,0,0,0,0,0,0,0,0,0,0,0,0,0,0,0,0,0,0,0,0,0,0,0,0,0,0,0,0,0,0,0,0,0,0,0,0,0,0,0,0,0,0,0,0,0,0,0,0,0,0,0,0,0,0,0,0,0,0,0,0,0],"split_type":[0,0,0,0,0,0,0,0,0,0,0,0,0,0,0,0,0,0,0,0,0,0,0,0,0,0,0,0,0,0,0,0,0,0,0,0,0,0,0,0,0,0,0,0,0,0,0,0,0,0,0,0,0,0,0,0,0,0,0,0,0,0,0,0,0,0,0,0,0,0,0,0,0,0,0,0,0,0,0,0,0,0,0,0,0,0,0,0,0,0,0,0,0,0,0,0,0,0,0,0,0,0,0,0,0,0,0,0,0,0,0,0,0,0,0,0,0,0,0,0,0,0,0],"sum_hessian":[2.1534E5,1.54824E5,6.0516E4,7.7273E4,7.7551E4,4.5256E4,1.526E4,3.1037E4,4.6236E4,4.4642E4,3.2909E4,2.683E4,1.8426E4,1.1886E4,3.374E3,1.1559E4,1.9478E4,2.4191E4,2.2045E4,2.5679E4,1.8963E4,1.7747E4,1.5162E4,1.5816E4,1.1014E4,1.0132E4,8.294E3,7.654E3,4.232E3,2.532E3,8.42E2,4.981E3,6.578E3,1.0679E4,8.799E3,1.1456E4,1.2735E4,9.193E3,1.2852E4,1.1013E4,1.4666E4,9.157E3,9.806E3,9.678E3,8.069E3,7.32E3,7.842E3,1.1086E4,4.73E3,7.69E3,3.324E3,6.02E3,4.112E3,2.728E3,5.566E3,4.241E3,3.413E3,1.736E3,2.496E3,1.686E3,8.46E2,3.34E2,5.08E2,1.696E3,3.285E3,4.08E3,2.498E3,4.742E3,5.937E3,3.867E3,4.932E3,6.437E3,5.019E3,5.985E3,6.75E3,1.257E3,7.936E3,9.205E3,3.647E3,4.602E3,6.411E3,5.574E3,9.092E3,1.546E3,7.611E3,6.753E3,3.053E3,2.993E3,6.685E3,5.996E3,2.073E3,1.109E3,6.211E3,5.081E3,2.761E3,4.696E3,6.39E3,2.097E3,2.633E3,2.286E3,5.404E3,1.554E3,1.77E3,2.08E3,3.94E3,1.983E3,2.129E3,1.146E3,1.582E3,4.018E3,1.548E3,2.601E3,1.64E3,1.162E3,2.251E3,1.125E3,6.11E2,6.13E2,1.883E3,1.066E3,6.2E2,2.94E2,5.52E2],"tree_param":{"num_deleted":"0","num_feature":"14","num_nodes":"123","size_leaf_vector":"1"}},{"base_weights":[1.0126173E-3,-1.2463971E0,2.7714677E0,-2.2082603E0,-3.9278468E-1,1.8538886E0,5.169638E0,-2.9195902E0,-1.8471979E0,-8.632942E-1,1.2193117E-1,1.2627286E0,2.6173668E0,4.4391294E0,7.5997367E0,-3.443167E0,-2.7102985E0,-2.1306236E0,-1.5923697E0,-1.1185106E0,-6.607758E-1,-1.4822006E-1,4.093852E-1,9.620754E-1,1.562209E0,2.2190046E0,2.983815E0,3.9388814E0,5.1320443E0,6.683939E0,8.969345E0,-3.6794825E0,-3.302934E0,-2.920125E0,-2.5770996E0,-2.2374878E0,-1.8849288E0,-1.7908785E0,-1.4389688E0,-1.3601761E0,-9.7590816E-1,-8.6920756E-1,-4.8408452E-1,-3.641232E-1,5.575398E-2,1.880305E-1,6.401849E-1,7.041276E-1,1.1742157E0,1.2942133E0,1.8091297E0,1.957535E0,2.4853556E0,2.826912E0,3.434777E0,3.6727788E0,4.2440033E0,4.8046947E0,5.5704536E0,6.3753777E0,7.279838E0,8.157191E0,2.9326153E-1,-1.1204499E-1,-1.00274675E-1,-1.00640684E-1,-8.724891E-2,-9.255696E-2,-8.3215125E-2,-8.239707E-2,-7.274567E-2,-7.169533E-2,-6.362706E-2,-5.914291E-2,-4.958342E-2,-6.1991706E-2,-5.1787663E-2,-4.6012506E-2,-3.67281E-2,-4.9268097E-2,-3.8699158E-2,-3.1817358E-2,-2.2287298E-2,-3.5507783E-2,-2.4226509E-2,-1.732682E-2,-7.2097057E-3,-2.0156745E-2,-8.901907E-3,-1.4813977E-3,8.306502E-3,-4.8969476E-3,7.4450565E-3,1.6479777E-2,2.7501415E-2,1.2892832E-2,2.3547854E-2,3.1890757E-2,4.374694E-2,3.184523E-2,4.2127706E-2,5.014377E-2,6.25669E-2,5.0737288E-2,6.267364E-2,7.0958555E-2,8.4223524E-2,7.983334E-2,9.290943E-2,9.457809E-2,1.0790177E-1,1.0432172E-1,1.19024836E-1,1.20841585E-1,1.3665475E-1,1.3574256E-1,1.537452E-1,1.5904836E-1,1.7759593E-1,1.7870164E-1,1.9913305E-1,2.1054891E-1,2.3241976E-1,2.3182811E-1,2.535226E-1],"categories":[],"categories_nodes":[],"categories_segments":[],"categories_sizes":[],"default_left":[0,0,0,0,0,0,0,0,0,0,0,0,0,0,0,0,0,0,0,0,0,0,0,0,0,0,0,0,0,0,0,0,0,0,0,0,0,0,0,0,0,0,0,0,0,0,0,0,0,0,0,0,0,0,0,0,0,0,0,0,0,0,0,0,0,0,0,0,0,0,0,0,0,0,0,0,0,0,0,0,0,0,0,0,0,0,0,0,0,0,0,0,0,0,0,0,0,0,0,0,0,0,0,0,0,0,0,0,0,0,0,0,0,0,0,0,0,0,0,0,0,0,0,0,0],"id":11,"left_children":[1,3,5,7,9,11,13,15,17,19,21,23,25,27,29,31,33,35,37,39,41,43,45,47,49,51,53,55,57,59,61,63,65,67,69,71,73,75,77,79,81,83,85,87,89,91,93,95,97,99,101,103,105,107,109,111,113,115,117,119,121,123,-1,-1,-1,-1,-1,-1,-1,-1,-1,-1,-1,-1,-1,-1,-1,-1,-1,-1,-1,-1,-1,-1,-1,-1,-1,-1,-1,-1,-1,-1,-1,-1,-1,-1,-1,-1,-1,-1,-1,-1,-1,-1,-1,-1,-1,-1,-1,-1,-1,-1,-1,-1,-1,-1,-1,-1,-1,-1,-1,-1,-1,-1,-1],"loss_changes":[7.434044E5,1.2178347E5,1.4694944E5,1.7905062E4,1.9032426E4,2.179739E4,3.277028E4,2.5616406E3,3.3368281E3,2.1207988E3,2.9146484E3,2.44925E3,3.0689219E3,4.9033438E3,5.2911562E3,2.0782031E2,4.5978125E2,5.6953125E2,7.3841016E2,6.2390625E2,8.4235254E2,8.5217236E2,9.2862646E2,7.422705E2,8.992031E2,6.9747266E2,7.650469E2,6.5253906E2,8.2475E2,4.207422E2,1.033E3,3.1765625E1,7.447656E1,1.4685156E2,2.5684375E2,2.6454688E2,1.290918E2,1.8430469E2,2.770996E2,1.3042285E2,2.2410254E2,2.0201855E2,2.8202368E2,1.9447937E2,2.3137828E2,1.9618332E2,2.2269531E2,1.3532764E2,2.331211E2,1.6534668E2,2.6539844E2,1.7417773E2,1.8521875E2,3.5492578E2,1.1587109E2,2.384336E2,2.3710156E2,2.8015625E2,2.0375E2,1.4310156E2,4.720703E1,3.791797E1,0E0,0E0,0E0,0E0,0E0,0E0,0E0,0E0,0E0,0E0,0E0,0E0,0E0,0E0,0E0,0E0,0E0,0E0,0E0,0E0,0E0,0E0,0E0,0E0,0E0,0E0,0E0,0E0,0E0,0E0,0E0,0E0,0E0,0E0,0E0,0E0,0E0,0E0,0E0,0E0,0E0,0E0,0E0,0E0,0E0,0E0,0E0,0E0,0E0,0E0,0E0,0E0,0E0,0E0,0E0,0E0,0E0,0E0,0E0,0E0,0E0,0E0,0E0],"parents":[2147483647,0,0,1,1,2,2,3,3,4,4,5,5,6,6,7,7,8,8,9,9,10,10,11,11,12,12,13,13,14,14,15,15,16,16,17,17,18,18,19,19,20,20,21,21,22,22,23,23,24,24,25,25,26,26,27,27,28,28,29,29,30,30,31,31,32,32,33,33,34,34,35,35,36,36,37,37,38,38,39,39,40,40,41,41,42,42,43,43,44,44,45,45,46,46,47,47,48,48,49,49,50,50,51,51,52,52,53,53,54,54,55,55,56,56,57,57,58,58,59,59,60,60,61,61],"right_children":[2,4,6,8,10,12,14,16,18,20,22,24,26,28,30,32,34,36,38,40,42,44,46,48,50,52,54,56,58,60,62,64,66,68,70,72,74,76,78,80,82,84,86,88,90,92,94,96,98,100,102,104,106,108,110,112,114,116,118,120,122,124,-1,-1,-1,-1,-1,-1,-1,-1,-1,-1,-1,-1,-1,-1,-1,-1,-1,-1,-1,-1,-1,-1,-1,-1,-1,-1,-1,-1,-1,-1,-1,-1,-1,-1,-1,-1,-1,-1,-1,-1,-1,-1,-1,-1,-1,-1,-1,-1,-1,-1,-1,-1,-1,-1,-1,-1,-1,-1,-1,-1,-1,-1,-1],"split_conditions":[4.122449E-1,-2.9387754E-1,1.3612245E0,-6.7346936E-1,2.8571429E-2,8.2857144E-1,2.2489796E0,-9.238095E-1,-4.829932E-1,-1.5102041E-1,2.0272109E-1,5.9183675E-1,1.0489796E0,1.7183673E0,2.812245E0,-1.0489796E0,-7.9591835E-1,2.6612905E-1,-8.008899E-2,-1.9354838E-1,-6.451613E-2,0E0,-3.2258064E-2,-1.2903225E-1,-6.451613E-2,-4.8387095E-2,6.1290324E-1,5.157165E-15,1.9551021E0,2.534694E0,3.187755E0,3.0107528E-1,6.7741936E-1,-3.2258064E-2,-3.2258064E-2,-5.836735E-1,1.0752689E0,-1.1612903E0,6.1290324E-1,-1.3548387E0,7.258065E-1,-1.3548387E0,8.3870965E-1,-1.3548387E0,8.3870965E-1,-1.548387E0,1.3118279E0,-1.2903225E0,1.032258E0,-1.032258E0,1.032258E0,-9.677419E-1,1.4193548E0,1.2285714E0,1.155102E0,1.555102E0,1.555102E0,2.4193548E-2,1.9354838E-1,-3.548387E-1,4.8387095E-1,-3.0967742E-1,2.9326153E-1,-1.1204499E-1,-1.00274675E-1,-1.00640684E-1,-8.724891E-2,-9.255696E-2,-8.3215125E-2,-8.239707E-2,-7.274567E-2,-7.169533E-2,-6.362706E-2,-5.914291E-2,-4.958342E-2,-6.1991706E-2,-5.1787663E-2,-4.6012506E-2,-3.67281E-2,-4.9268097E-2,-3.8699158E-2,-3.1817358E-2,-2.2287298E-2,-3.5507783E-2,-2.4226509E-2,-1.732682E-2,-7.2097057E-3,-2.0156745E-2,-8.901907E-3,-1.4813977E-3,8.306502E-3,-4.8969476E-3,7.4450565E-3,1.6479777E-2,2.7501415E-2,1.2892832E-2,2.3547854E-2,3.1890757E-2,4.374694E-2,3.184523E-2,4.2127706E-2,5.014377E-2,6.25669E-2,5.0737288E-2,6.267364E-2,7.0958555E-2,8.4223524E-2,7.983334E-2,9.290943E-2,9.457809E-2,1.0790177E-1,1.0432172E-1,1.19024836E-1,1.20841585E-1,1.3665475E-1,1.3574256E-1,1.537452E-1,1.5904836E-1,1.7759593E-1,1.7870164E-1,1.9913305E-1,2.1054891E-1,2.3241976E-1,2.3182811E-1,2.535226E-1],"split_indices":[0,0,0,0,0,0,0,0,0,0,0,0,0,0,0,0,0,1,1,1,1,1,1,1,1,1,1,1,0,0,0,1,1,1,1,0,1,1,1,1,1,1,1,1,1,1,1,1,1,1,1,1,1,0,0,0,0,1,1,1,1,1,0,0,0,0,0,0,0,0,0,0,0,0,0,0,0,0,0,0,0,0,0,0,0,0,0,0,0,0,0,0,0,0,0,0,0,0,0,0,0,0,0,0,0,0,0,0,0,0,0,0,0,0,0,0,0,0,0,0,0,0,0,0,0],"split_type":[0,0,0,0,0,0,0,0,0,0,0,0,0,0,0,0,0,0,0,0,0,0,0,0,0,0,0,0,0,0,0,0,0,0,0,0,0,0,0,0,0,0,0,0,0,0,0,0,0,0,0,0,0,0,0,0,0,0,0,0,0,0,0,0,0,0,0,0,0,0,0,0,0,0,0,0,0,0,0,0,0,0,0,0,0,0,0,0,0,0,0,0,0,0,0,0,0,0,0,0,0,0,0,0,0,0,0,0,0,0,0,0,0,0,0,0,0,0,0,0,0,0,0,0,0],"sum_hessian":[2.1511E5,1.48326E5,6.6784E4,6.974E4,7.8586E4,4.8304E4,1.848E4,2.3478E4,4.6262E4,4.1056E4,3.753E4,2.7226E4,2.1078E4,1.4211E4,4.269E3,6.7E3,1.6778E4,2.1898E4,2.4364E4,1.8162E4,2.2894E4,1.9347E4,1.8183E4,1.3589E4,1.3637E4,1.0103E4,1.0975E4,8.257E3,5.954E3,2.562E3,1.707E3,2.485E3,4.215E3,6.506E3,1.0272E4,1.5254E4,6.644E3,1.0615E4,1.3749E4,6.736E3,1.1426E4,1.0501E4,1.2393E4,9.399E3,9.948E3,9.283E3,8.9E3,6.135E3,7.454E3,6.543E3,7.094E3,5.103E3,5E3,8.148E3,2.827E3,4.418E3,3.839E3,3.416E3,2.538E3,1.696E3,8.66E2,8.56E2,8.51E2,2.125E3,3.6E2,3.719E3,4.96E2,3.046E3,3.46E3,4.852E3,5.42E3,6.603E3,8.651E3,4.834E3,1.81E3,2.01E3,8.605E3,9.533E3,4.216E3,1.337E3,5.399E3,8.377E3,3.049E3,1.718E3,8.783E3,8.956E3,3.437E3,1.686E3,7.713E3,6.742E3,3.206E3,1.356E3,7.927E3,6.702E3,2.198E3,1.398E3,4.737E3,5.361E3,2.093E3,2.105E3,4.438E3,4.741E3,2.353E3,1.693E3,3.41E3,3.649E3,1.351E3,5.056E3,3.092E3,1.039E3,1.788E3,2.665E3,1.753E3,2.275E3,1.564E3,1.831E3,1.585E3,1.444E3,1.094E3,6.63E2,1.033E3,5.66E2,3E2,3.59E2,4.97E2],"tree_param":{"num_deleted":"0","num_feature":"14","num_nodes":"125","size_leaf_vector":"1"}},{"base_weights":[2.8452068E-3,-1.1388117E0,2.8488402E0,-2.0498397E0,-2.19493E-1,2.0061152E0,5.2297635E0,-2.685269E0,-1.6229833E0,-6.49297E-1,3.2952744E-1,1.4499302E0,2.8060398E0,4.567379E0,7.71315E0,-3.1658337E0,-2.424651E0,-1.854669E0,-1.3437567E0,-8.7486684E-1,-3.990937E-1,8.281216E-2,6.046475E-1,1.1355568E0,1.7728988E0,2.450982E0,3.1745892E0,4.0748963E0,5.310874E0,7.1227655E0,9.471402E0,-3.42701E0,-2.948175E0,-2.5969293E0,-2.276698E0,-1.9945511E0,-1.6672215E0,-1.5760872E0,-1.2115589E0,-1.0834328E0,-7.2016144E-1,-6.0153407E-1,-2.0872074E-1,-1.5602042E-1,2.7229556E-1,3.8399288E-1,8.345736E-1,9.1093653E-1,1.374073E0,1.4641668E0,1.9798338E0,2.0877125E0,2.6318123E0,2.79128E0,3.3654559E0,3.871064E0,4.446609E0,4.932401E0,5.699385E0,6.7139378E0,7.928336E0,2.6959467E-1,2.9288307E-1,-1.09310135E-1,-9.948784E-2,-9.198075E-2,-8.258639E-2,-8.0310605E-2,-6.932379E-2,-7.377069E-2,-6.410162E-2,-6.3703805E-2,-5.5371743E-2,-5.485185E-2,-4.599711E-2,-5.689777E-2,-4.5487963E-2,-3.845757E-2,-2.8488623E-2,-4.1492276E-2,-3.065145E-2,-2.398649E-2,-1.4237696E-2,-2.713522E-2,-1.625181E-2,-9.751222E-3,-8.1715395E-4,-8.92722E-3,-9.0039347E-4,4.3738997E-3,1.3999647E-2,1.7964755E-3,1.360288E-2,2.149846E-2,3.0961972E-2,2.0892682E-2,3.0584978E-2,3.7583E-2,4.899606E-2,3.7995454E-2,4.868085E-2,5.3879116E-2,6.510881E-2,6.441974E-2,4.8556395E-2,7.503192E-2,8.8061966E-2,7.673026E-2,8.934726E-2,9.5227286E-2,1.0780818E-1,1.0756831E-1,1.23221464E-1,1.2604837E-1,1.4210129E-1,1.4111452E-1,1.610858E-1,1.5389426E-1,1.763651E-1,1.9050135E-1,2.1198544E-1,2.2879404E-1,2.5001252E-1],"categories":[],"categories_nodes":[],"categories_segments":[],"categories_sizes":[],"default_left":[0,0,0,0,0,0,0,0,0,0,0,0,0,0,0,0,0,0,0,0,0,0,0,0,0,0,0,0,0,0,0,0,0,0,0,0,0,0,0,0,0,0,0,0,0,0,0,0,0,0,0,0,0,0,0,0,0,0,0,0,0,0,0,0,0,0,0,0,0,0,0,0,0,0,0,0,0,0,0,0,0,0,0,0,0,0,0,0,0,0,0,0,0,0,0,0,0,0,0,0,0,0,0,0,0,0,0,0,0,0,0,0,0,0,0,0,0,0,0,0,0,0,0],"id":12,"left_children":[1,3,5,7,9,11,13,15,17,19,21,23,25,27,29,31,33,35,37,39,41,43,45,47,49,51,53,55,57,59,61,63,65,67,69,71,73,75,77,79,81,83,85,87,89,91,93,95,97,99,101,103,105,107,109,111,113,115,117,119,121,-1,-1,-1,-1,-1,-1,-1,-1,-1,-1,-1,-1,-1,-1,-1,-1,-1,-1,-1,-1,-1,-1,-1,-1,-1,-1,-1,-1,-1,-1,-1,-1,-1,-1,-1,-1,-1,-1,-1,-1,-1,-1,-1,-1,-1,-1,-1,-1,-1,-1,-1,-1,-1,-1,-1,-1,-1,-1,-1,-1,-1,-1],"loss_changes":[7.0009806E5,1.2879517E5,1.2376409E5,2.0944438E4,1.8062488E4,2.026636E4,2.6487688E4,3.8775938E3,2.9856797E3,2.4223926E3,2.281135E3,2.726207E3,2.4357031E3,4.6378438E3,3.4506875E3,6.08125E2,5.056328E2,6.576172E2,6.4091797E2,7.271543E2,7.842119E2,8.020831E2,8.0548145E2,7.2797656E2,8.4296094E2,6.1858594E2,6.5928125E2,5.6097656E2,7.141875E2,7.805469E2,2.6734375E1,1.0465234E2,1.2694141E2,2.0524219E2,2.699453E2,2.7217188E2,2.2934766E2,1.4173828E2,2.44375E2,1.7562305E2,2.5201709E2,1.7782935E2,2.2141403E2,1.3973322E2,2.4273407E2,1.8235754E2,1.7997705E2,1.6225879E2,2.0470898E2,1.6389648E2,2.7271875E2,8.405371E1,2.4319922E2,1.240625E2,2.5324219E2,3.1742188E2,1.698086E2,2.2911328E2,2.215625E2,1.6835938E2,3.580078E1,0E0,0E0,0E0,0E0,0E0,0E0,0E0,0E0,0E0,0E0,0E0,0E0,0E0,0E0,0E0,0E0,0E0,0E0,0E0,0E0,0E0,0E0,0E0,0E0,0E0,0E0,0E0,0E0,0E0,0E0,0E0,0E0,0E0,0E0,0E0,0E0,0E0,0E0,0E0,0E0,0E0,0E0,0E0,0E0,0E0,0E0,0E0,0E0,0E0,0E0,0E0,0E0,0E0,0E0,0E0,0E0,0E0,0E0,0E0,0E0,0E0,0E0],"parents":[2147483647,0,0,1,1,2,2,3,3,4,4,5,5,6,6,7,7,8,8,9,9,10,10,11,11,12,12,13,13,14,14,15,15,16,16,17,17,18,18,19,19,20,20,21,21,22,22,23,23,24,24,25,25,26,26,27,27,28,28,29,29,30,30,31,31,32,32,33,33,34,34,35,35,36,36,37,37,38,38,39,39,40,40,41,41,42,42,43,43,44,44,45,45,46,46,47,47,48,48,49,49,50,50,51,51,52,52,53,53,54,54,55,55,56,56,57,57,58,58,59,59,60,60],"right_children":[2,4,6,8,10,12,14,16,18,20,22,24,26,28,30,32,34,36,38,40,42,44,46,48,50,52,54,56,58,60,62,64,66,68,70,72,74,76,78,80,82,84,86,88,90,92,94,96,98,100,102,104,106,108,110,112,114,116,118,120,122,-1,-1,-1,-1,-1,-1,-1,-1,-1,-1,-1,-1,-1,-1,-1,-1,-1,-1,-1,-1,-1,-1,-1,-1,-1,-1,-1,-1,-1,-1,-1,-1,-1,-1,-1,-1,-1,-1,-1,-1,-1,-1,-1,-1,-1,-1,-1,-1,-1,-1,-1,-1,-1,-1,-1,-1,-1,-1,-1,-1,-1,-1],"split_conditions":[4.77551E-1,-2.3265307E-1,1.4489796E0,-6E-1,1.0612245E-1,9.265306E-1,2.3714285E0,-8.312925E-1,-3.9591837E-1,-6.122449E-2,2.829932E-1,6.6938776E-1,1.155102E0,1.8244898E0,3.187755E0,-9.6734697E-1,-7.0765305E-1,7.7419356E-2,-1.9354838E-1,-1.2903225E-1,-3.2258064E-2,-1.2903225E-1,-5.157165E-15,-5.157165E-15,-2.580645E-1,-3.8709676E-1,-3.8709676E-1,3.3870968E-1,2.044898E0,2.812245E0,-3.548387E-1,-1.0877551E0,1.6129032E-1,4.1935483E-1,-9.677419E-2,-4.884354E-1,-5.020408E-1,-1.548387E0,8.3870965E-1,-1.3548387E0,8.548387E-1,-1.3548387E0,6.1290324E-1,1.8639456E-1,6.1290324E-1,-1.3548387E0,8.548387E-1,-8.3870965E-1,1.032258E0,7.7959186E-1,7.9591835E-1,1.5536048E0,9.168081E-1,1.277551E0,1.3061224E0,1.5959184E0,1.6367347E0,4.1935483E-1,-8.7096775E-1,2.534694E0,2.2580644E-1,2.6959467E-1,2.9288307E-1,-1.09310135E-1,-9.948784E-2,-9.198075E-2,-8.258639E-2,-8.0310605E-2,-6.932379E-2,-7.377069E-2,-6.410162E-2,-6.3703805E-2,-5.5371743E-2,-5.485185E-2,-4.599711E-2,-5.689777E-2,-4.5487963E-2,-3.845757E-2,-2.8488623E-2,-4.1492276E-2,-3.065145E-2,-2.398649E-2,-1.4237696E-2,-2.713522E-2,-1.625181E-2,-9.751222E-3,-8.1715395E-4,-8.92722E-3,-9.0039347E-4,4.3738997E-3,1.3999647E-2,1.7964755E-3,1.360288E-2,2.149846E-2,3.0961972E-2,2.0892682E-2,3.0584978E-2,3.7583E-2,4.899606E-2,3.7995454E-2,4.868085E-2,5.3879116E-2,6.510881E-2,6.441974E-2,4.8556395E-2,7.503192E-2,8.8061966E-2,7.673026E-2,8.934726E-2,9.5227286E-2,1.0780818E-1,1.0756831E-1,1.23221464E-1,1.2604837E-1,1.4210129E-1,1.4111452E-1,1.610858E-1,1.5389426E-1,1.763651E-1,1.9050135E-1,2.1198544E-1,2.2879404E-1,2.5001252E-1],"split_indices":[0,0,0,0,0,0,0,0,0,0,0,0,0,0,0,0,0,1,1,1,1,1,1,1,1,1,1,1,0,0,1,0,1,1,1,0,0,1,1,1,1,1,1,0,1,1,1,1,1,0,0,5,1,0,0,0,0,1,1,0,1,0,0,0,0,0,0,0,0,0,0,0,0,0,0,0,0,0,0,0,0,0,0,0,0,0,0,0,0,0,0,0,0,0,0,0,0,0,0,0,0,0,0,0,0,0,0,0,0,0,0,0,0,0,0,0,0,0,0,0,0,0,0],"split_type":[0,0,0,0,0,0,0,0,0,0,0,0,0,0,0,0,0,0,0,0,0,0,0,0,0,0,0,0,0,0,0,0,0,0,0,0,0,0,0,0,0,0,0,0,0,0,0,0,0,0,0,0,0,0,0,0,0,0,0,0,0,0,0,0,0,0,0,0,0,0,0,0,0,0,0,0,0,0,0,0,0,0,0,0,0,0,0,0,0,0,0,0,0,0,0,0,0,0,0,0,0,0,0,0,0,0,0,0,0,0,0,0,0,0,0,0,0,0,0,0,0,0,0],"sum_hessian":[2.15469E5,1.53781E5,6.1688E4,7.7238E4,7.6543E4,4.5563E4,1.6125E4,3.1034E4,4.6204E4,4.2933E4,3.361E4,2.6878E4,1.8685E4,1.2732E4,3.393E3,1.0908E4,2.0126E4,2.5248E4,2.0956E4,2.2576E4,2.0357E4,1.7721E4,1.5889E4,1.3623E4,1.3255E4,9.521E3,9.164E3,7.663E3,5.069E3,2.544E3,8.49E2,4.951E3,5.957E3,9.29E3,1.0836E4,1.4452E4,1.0796E4,7.595E3,1.3361E4,9.611E3,1.2965E4,9.864E3,1.0493E4,7.839E3,9.882E3,8.11E3,7.779E3,7.019E3,6.604E3,5.323E3,7.932E3,3.169E3,6.352E3,3.052E3,6.112E3,4.957E3,2.706E3,2.575E3,2.494E3,1.694E3,8.5E2,3.31E2,5.18E2,1.663E3,3.288E3,3.705E3,2.252E3,7.251E3,2.039E3,4.698E3,6.138E3,7.736E3,6.716E3,4.894E3,5.902E3,1.189E3,6.406E3,1.0528E4,2.833E3,1.637E3,7.974E3,9.795E3,3.17E3,1.623E3,8.241E3,6.393E3,4.1E3,3.69E3,4.149E3,5.988E3,3.894E3,1.432E3,6.678E3,4.874E3,2.905E3,2.362E3,4.657E3,4.503E3,2.101E3,2.374E3,2.949E3,4.042E3,3.89E3,2.808E3,3.61E2,4.447E3,1.905E3,1.364E3,1.688E3,3.334E3,2.778E3,2.253E3,2.704E3,1.476E3,1.23E3,1.699E3,8.76E2,6.05E2,1.889E3,8.43E2,8.51E2,4.99E2,3.51E2],"tree_param":{"num_deleted":"0","num_feature":"14","num_nodes":"123","size_leaf_vector":"1"}},{"base_weights":[-9.1325276E-4,-1.1729876E0,2.608189E0,-2.089428E0,-3.7972155E-1,1.7723869E0,4.930702E0,-2.748912E0,-1.7488569E0,-8.323252E-1,1.0392085E-1,1.2274623E0,2.5464854E0,4.232369E0,7.147795E0,-3.2413056E0,-2.5506651E0,-2.0143414E0,-1.5211543E0,-1.0723907E0,-6.419871E-1,-1.7025323E-1,3.618874E-1,9.381608E-1,1.549774E0,2.1889842E0,2.907573E0,3.8135211E0,4.924718E0,6.2959337E0,8.426223E0,-3.4633718E0,-3.107615E0,-2.7258112E0,-2.407673E0,-2.098753E0,-1.730865E0,-1.6155844E0,-1.229529E0,-1.2555581E0,-9.053943E-1,